{"learner":{"attributes":{"best_iteration":"99","best_score":"6.039477647433e-05"},"feature_names":[],"feature_types":[],"gradient_booster":{"model":{"gbtree_model_param":{"num_parallel_tree":"1","num_trees":"100"},"iteration_indptr":[0,1,2,3,4,5,6,7,8,9,10,11,12,13,14,15,16,17,18,19,20,21,22,23,24,25,26,27,28,29,30,31,32,33,34,35,36,37,38,39,40,41,42,43,44,45,46,47,48,49,50,51,52,53,54,55,56,57,58,59,60,61,62,63,64,65,66,67,68,69,70,71,72,73,74,75,76,77,78,79,80,81,82,83,84,85,86,87,88,89,90,91,92,93,94,95,96,97,98,99,100],"tree_info":[0,0,0,0,0,0,0,0,0,0,0,0,0,0,0,0,0,0,0,0,0,0,0,0,0,0,0,0,0,0,0,0,0,0,0,0,0,0,0,0,0,0,0,0,0,0,0,0,0,0,0,0,0,0,0,0,0,0,0,0,0,0,0,0,0,0,0,0,0,0,0,0,0,0,0,0,0,0,0,0,0,0,0,0,0,0,0,0,0,0,0,0,0,0,0,0,0,0,0,0],"trees":[{"base_weights":[4.0402813E-3,-2.3330276E-1,1.7274724E0,-2.3078811E-1,1.7493718E0,-1.5447551E-1,1.7498453E-1],"categories":[],"categories_nodes":[],"categories_segments":[],"categories_sizes":[],"default_left":[0,0,0,0,0,0,0],"id":0,"left_children":[1,-1,3,-1,5,-1,-1],"loss_changes":[1.1885335E5,0E0,1.5049258E3,0E0,2.90625E1,0E0,0E0],"parents":[2147483647,0,0,2,2,4,4],"right_children":[2,-1,4,-1,6,-1,-1],"split_conditions":[7.443825E-1,-2.3330276E-1,5.270214E-1,-2.3078811E-1,-3.2395288E-1,-1.5447551E-1,1.7498453E-1],"split_indices":[2,0,15,0,16,0,0],"split_type":[0,0,0,0,0,0,0],"sum_hessian":[2.9506418E4,1.2523507E4,1.698291E4,9.11032E1,1.6891809E4,1.9592087E0,1.6889848E4],"tree_param":{"num_deleted":"0","num_feature":"44","num_nodes":"7","size_leaf_vector":"1"}},{"base_weights":[7.357291E-3,-2.0556302E-1,1.6078126E0,-2.0371008E-1,1.6290954E0,-1.2831531E-1,1.6294381E-1],"categories":[],"categories_nodes":[],"categories_segments":[],"categories_sizes":[],"default_left":[0,0,0,0,0,0,0],"id":1,"left_children":[1,-1,3,-1,5,-1,-1],"loss_changes":[9.693838E4,0E0,1.2858789E3,0E0,1.8496094E1,0E0,0E0],"parents":[2147483647,0,0,2,2,4,4],"right_children":[2,-1,4,-1,6,-1,-1],"split_conditions":[7.443825E-1,-2.0556302E-1,5.270214E-1,-2.0371008E-1,-3.2395288E-1,-1.2831531E-1,1.6294381E-1],"split_indices":[2,0,15,0,16,0,0],"split_type":[0,0,0,0,0,0,0],"sum_hessian":[2.9357967E4,1.2825547E4,1.653242E4,9.5423004E1,1.6436996E4,1.4933745E0,1.6435502E4],"tree_param":{"num_deleted":"0","num_feature":"44","num_nodes":"7","size_leaf_vector":"1"}},{"base_weights":[6.739555E-3,-1.8594669E-1,1.5135033E0,-1.8443082E-1,1.5343066E0,-1.3365395E-1,1.5347575E-1],"categories":[],"categories_nodes":[],"categories_segments":[],"categories_sizes":[],"default_left":[0,0,0,0,0,0,0],"id":2,"left_children":[1,-1,3,-1,5,-1,-1],"loss_changes":[8.028928E4,0E0,1.1063711E3,0E0,2.2375E1,0E0,0E0],"parents":[2147483647,0,0,2,2,4,4],"right_children":[2,-1,4,-1,6,-1,-1],"split_conditions":[7.443825E-1,-1.8594669E-1,5.270214E-1,-1.8443082E-1,-3.2395288E-1,-1.3365395E-1,1.5347575E-1],"split_indices":[2,0,15,0,16,0,0],"split_type":[0,0,0,0,0,0,0],"sum_hessian":[2.8551062E4,1.27541455E4,1.5796916E4,9.672719E1,1.5700189E4,1.9999884E0,1.5698189E4],"tree_param":{"num_deleted":"0","num_feature":"44","num_nodes":"7","size_leaf_vector":"1"}},{"base_weights":[2.6256193E-3,-1.7136146E-1,1.4384139E0,-1.7039163E-1,1.4581794E0,-1.217482E-1,1.4587004E-1],"categories":[],"categories_nodes":[],"categories_segments":[],"categories_sizes":[],"default_left":[0,0,0,0,0,0,0],"id":3,"left_children":[1,-1,3,-1,5,-1,-1],"loss_changes":[6.753519E4,0E0,9.29334E2,0E0,2.2453125E1,0E0,0E0],"parents":[2147483647,0,0,2,2,4,4],"right_children":[2,-1,4,-1,6,-1,-1],"split_conditions":[7.443825E-1,-1.7136146E-1,-3.0874795E-1,-1.7039163E-1,5.270214E-1,-1.217482E-1,1.4587004E-1],"split_indices":[2,0,16,0,15,0,0],"split_type":[0,0,0,0,0,0,0],"sum_hessian":[2.7405006E4,1.2483233E4,1.4921772E4,9.27399E1,1.4829032E4,2.4326212E0,1.48266E4],"tree_param":{"num_deleted":"0","num_feature":"44","num_nodes":"7","size_leaf_vector":"1"}},{"base_weights":[7.0307553E-3,-1.6012152E-1,1.3771595E0,-1.5912817E-1,1.3960035E0,-1.0717918E-1,1.3964137E-1],"categories":[],"categories_nodes":[],"categories_segments":[],"categories_sizes":[],"default_left":[0,0,0,0,0,0,0],"id":4,"left_children":[1,-1,3,-1,5,-1,-1],"loss_changes":[5.76962E4,0E0,7.9309766E2,0E0,1.5716797E1,0E0,0E0],"parents":[2147483647,0,0,2,2,4,4],"right_children":[2,-1,4,-1,6,-1,-1],"split_conditions":[7.443825E-1,-1.6012152E-1,-3.0874795E-1,-1.5912817E-1,5.270214E-1,-1.0717918E-1,1.3964137E-1],"split_indices":[2,0,16,0,15,0,0],"split_type":[0,0,0,0,0,0,0],"sum_hessian":[2.6181842E4,1.2044241E4,1.41376E4,8.865466E1,1.4048945E4,1.9007695E0,1.4047045E4],"tree_param":{"num_deleted":"0","num_feature":"44","num_nodes":"7","size_leaf_vector":"1"}},{"base_weights":[4.7672098E-3,-1.5122414E-1,1.3258768E0,-1.5006834E-1,1.3442668E0,-1.0189388E-1,1.3446431E-1],"categories":[],"categories_nodes":[],"categories_segments":[],"categories_sizes":[],"default_left":[0,0,0,0,0,0,0],"id":5,"left_children":[1,-1,3,-1,5,-1,-1],"loss_changes":[4.9597133E4,0E0,6.895996E2,0E0,1.3058594E1,0E0,0E0],"parents":[2147483647,0,0,2,2,4,4],"right_children":[2,-1,4,-1,6,-1,-1],"split_conditions":[7.443825E-1,-1.5122414E-1,5.270214E-1,-1.5006834E-1,-3.2395288E-1,-1.0189388E-1,1.3446431E-1],"split_indices":[2,0,15,0,16,0,0],"split_type":[0,0,0,0,0,0,0],"sum_hessian":[2.4745404E4,1.1518618E4,1.3226786E4,8.497754E1,1.3141809E4,1.6612047E0,1.3140147E4],"tree_param":{"num_deleted":"0","num_feature":"44","num_nodes":"7","size_leaf_vector":"1"}},{"base_weights":[8.627777E-3,-1.2766817E0,1.2152473E0,-1.3823277E0,8.7612945E-1,1.2784663E0,-1.3624817E0,-1.4186492E0,-6.6725373E-1,-1.4114289E-1,1.1113833E0,1.2898221E0,-3.715675E-1,-1.412777E0,7.324311E-1,-1.4281888E0,-9.669079E-1,1.0839242E0,-1.2895359E0,-1.3748445E-1,1.2262357E0,-1.3676958E-1,1.2941717E0,-1.2708199E0,1.1811142E0,-1.4248102E0,1.2875034E-1,1.0962123E-1,-7.416814E-2,-1.4354846E-1,-1.2676327E-1,9.373528E-2,-1.3584222E-1,-1.3039595E-1,1.2730381E-1,-1.0333521E-2,-1.3962649E-1,1.2764713E-1,-7.809897E-2,-1.3208087E-1,1.2967744E-1,-1.3433442E-1,5.870095E-2,1.2568139E-1,-4.891005E-2,-1.4282362E-1,-5.2149754E-2,6.7213655E-2,-4.891005E-2],"categories":[],"categories_nodes":[],"categories_segments":[],"categories_sizes":[],"default_left":[0,0,0,0,0,0,0,0,0,0,0,0,0,0,0,0,0,0,0,0,0,0,0,0,0,0,0,0,0,0,0,0,0,0,0,0,0,0,0,0,0,0,0,0,0,0,0,0,0],"id":6,"left_children":[1,3,5,7,9,11,13,15,17,-1,19,21,23,25,27,29,31,33,35,-1,37,-1,39,41,43,45,47,-1,-1,-1,-1,-1,-1,-1,-1,-1,-1,-1,-1,-1,-1,-1,-1,-1,-1,-1,-1,-1,-1],"loss_changes":[3.606252E4,2.5619902E3,1.9562422E3,2.7781836E2,2.8533954E2,2.1983398E2,3.133612E1,4.2632812E1,5.688274E2,0E0,1.3837549E2,1.3617188E2,1.1431084E2,5.399292E0,4.781949E0,9.892578E0,1.6105579E2,6.35558E1,4.8552246E1,0E0,4.718701E1,0E0,8.072461E1,7.74704E0,4.4267044E0,1.1895752E-1,1.3678522E0,0E0,0E0,0E0,0E0,0E0,0E0,0E0,0E0,0E0,0E0,0E0,0E0,0E0,0E0,0E0,0E0,0E0,0E0,0E0,0E0,0E0,0E0],"parents":[2147483647,0,0,1,1,2,2,3,3,4,4,5,5,6,6,7,7,8,8,10,10,11,11,12,12,13,13,14,14,15,15,16,16,17,17,18,18,20,20,22,22,23,23,24,24,25,25,26,26],"right_children":[2,4,6,8,10,12,14,16,18,-1,20,22,24,26,28,30,32,34,36,-1,38,-1,40,42,44,46,48,-1,-1,-1,-1,-1,-1,-1,-1,-1,-1,-1,-1,-1,-1,-1,-1,-1,-1,-1,-1,-1,-1],"split_conditions":[-2.5348386E-1,-3.3998573E-1,2.765863E-1,-2.6539797E-1,-2.7415356E-1,4.7051927E-1,-1.8717326E-1,-2.7512166E-1,-9.643906E-2,-1.4114289E-1,5.270214E-1,5.270214E-1,-3.116871E-1,-9.132926E-1,5.186346E-1,-3.0317578E-1,-9.643906E-2,5.270214E-1,-1.10691E-1,-1.3748445E-1,2.2588588E-1,-1.3676958E-1,-2.7415356E-1,-2.6138341E-2,8.949013E-2,-2.2113158E-1,1.6952964E0,1.0962123E-1,-7.416814E-2,-1.4354846E-1,-1.2676327E-1,9.373528E-2,-1.3584222E-1,-1.3039595E-1,1.2730381E-1,-1.0333521E-2,-1.3962649E-1,1.2764713E-1,-7.809897E-2,-1.3208087E-1,1.2967744E-1,-1.3433442E-1,5.870095E-2,1.2568139E-1,-4.891005E-2,-1.4282362E-1,-5.2149754E-2,6.7213655E-2,-4.891005E-2],"split_indices":[16,41,0,38,6,14,41,16,14,0,15,15,41,19,0,38,14,15,0,0,8,0,6,38,17,41,9,0,0,0,0,0,0,0,0,0,0,0,0,0,0,0,0,0,0,0,0,0,0],"split_type":[0,0,0,0,0,0,0,0,0,0,0,0,0,0,0,0,0,0,0,0,0,0,0,0,0,0,0,0,0,0,0,0,0,0,0,0,0,0,0,0,0,0,0,0,0,0,0,0,0],"sum_hessian":[2.3250947E4,1.1258338E4,1.199261E4,1.0732036E4,5.2630145E2,1.1706022E4,2.865873E2,1.0212328E4,5.197081E2,4.861172E1,4.7768973E2,1.1626229E4,7.9794716E1,2.8018616E2,6.4011703E0,9.999012E3,2.1331628E2,1.3606442E2,3.836437E2,2.0608313E1,4.5708142E2,1.8485529E1,1.1607742E4,5.0644775E1,2.914994E1,2.780911E2,2.0950615E0,5.339779E0,1.0613914E0,9.556809E3,4.4220334E2,3.614053E1,1.7717575E2,9.552522E0,1.2651191E2,3.1831524E1,3.518122E2,4.462764E2,1.0805035E1,1.1038469E1,1.1596704E4,4.9008556E1,1.6362193E0,2.8122835E1,1.0271057E0,2.7646143E2,1.6296549E0,1.0679557E0,1.0271057E0],"tree_param":{"num_deleted":"0","num_feature":"44","num_nodes":"49","size_leaf_vector":"1"}},{"base_weights":[7.02426E-3,-1.246955E0,1.1958207E0,-1.3351411E0,9.168644E-1,1.232141E0,-9.592319E-1,-1.349614E0,4.7058865E-1,-1.3474196E-1,1.1512141E0,-9.2538184E-1,1.2478693E0,-1.2830114E0,7.9654855E-1,-1.3561797E0,6.3401383E-1,-1.1748596E0,1.0833007E0,-1.1699232E0,1.2104146E0,-1.364314E-1,-1.0775078E-1,-1.3122682E-1,1.2521901E0,-1.3136643E0,5.6178087E-1,1.1943125E-1,-1.0817059E-1,-1.3746879E-1,-9.3644194E-2,1.2177511E-1,-1.2245593E-1,-1.2953985E-1,2.121221E-2,1.1848749E-1,-5.3092208E-2,-1.24128714E-1,-3.33192E-2,1.2315877E-1,-3.542046E-2,5.8703363E-2,-8.738067E-2,5.9832275E-2,1.2579022E-1,-7.78114E-2,-1.3634692E-1,6.991818E-2,1.4436801E-2],"categories":[],"categories_nodes":[],"categories_segments":[],"categories_sizes":[],"default_left":[0,0,0,0,0,0,0,0,0,0,0,0,0,0,0,0,0,0,0,0,0,0,0,0,0,0,0,0,0,0,0,0,0,0,0,0,0,0,0,0,0,0,0,0,0,0,0,0,0],"id":7,"left_children":[1,3,5,7,9,11,13,15,17,-1,19,21,23,25,27,29,31,33,35,37,39,-1,41,-1,43,45,47,-1,-1,-1,-1,-1,-1,-1,-1,-1,-1,-1,-1,-1,-1,-1,-1,-1,-1,-1,-1,-1,-1],"loss_changes":[3.244964E4,2.0226484E3,8.758125E2,2.666543E2,2.21987E2,3.7407617E2,1.06627625E2,1.3238086E2,8.3618645E1,0E0,5.3220062E1,2.8602394E1,1.2233203E2,9.628906E0,2.3361353E1,7.690234E1,3.837419E1,4.060095E0,1.0472771E1,1.7665005E-1,1.263092E1,0E0,1.5984368E1,0E0,3.993164E1,3.0722046E0,8.661735E-2,0E0,0E0,0E0,0E0,0E0,0E0,0E0,0E0,0E0,0E0,0E0,0E0,0E0,0E0,0E0,0E0,0E0,0E0,0E0,0E0,0E0,0E0],"parents":[2147483647,0,0,1,1,2,2,3,3,4,4,5,5,6,6,7,7,8,8,10,10,11,11,12,12,13,13,14,14,15,15,16,16,17,17,18,18,19,19,20,20,22,22,24,24,25,25,26,26],"right_children":[2,4,6,8,10,12,14,16,18,-1,20,22,24,26,28,30,32,34,36,38,40,-1,42,-1,44,46,48,-1,-1,-1,-1,-1,-1,-1,-1,-1,-1,-1,-1,-1,-1,-1,-1,-1,-1,-1,-1,-1,-1],"split_conditions":[-2.748762E-1,-3.3998573E-1,4.7051927E-1,1.0909827E0,-2.7415356E-1,-2.9909867E-1,-2.1547186E-1,-7.650878E-2,-2.9763666E-1,-1.3474196E-1,-3.034847E-1,-3.061163E-1,-2.7415356E-1,6.2009938E-2,-1.2938573E0,1.1277329E0,4.7051927E-1,1.1277329E0,1.870401E-1,-2.8904822E-1,4.7051927E-1,-1.364314E-1,3.287927E-2,-1.3122682E-1,-2.8681776E-1,8.294766E-2,-2.1719244E0,1.1943125E-1,-1.0817059E-1,-1.3746879E-1,-9.3644194E-2,1.2177511E-1,-1.2245593E-1,-1.2953985E-1,2.121221E-2,1.1848749E-1,-5.3092208E-2,-1.24128714E-1,-3.33192E-2,1.2315877E-1,-3.542046E-2,5.8703363E-2,-8.738067E-2,5.9832275E-2,1.2579022E-1,-7.78114E-2,-1.3634692E-1,6.991818E-2,1.4436801E-2],"split_indices":[43,41,14,30,6,16,41,38,16,0,16,16,6,38,3,26,14,26,14,41,14,0,9,0,16,0,3,0,0,0,0,0,0,0,0,0,0,0,0,0,0,0,0,0,0,0,0,0,0],"split_type":[0,0,0,0,0,0,0,0,0,0,0,0,0,0,0,0,0,0,0,0,0,0,0,0,0,0,0,0,0,0,0,0,0,0,0,0,0,0,0,0,0,0,0,0,0,0,0,0,0],"sum_hessian":[2.1765674E4,1.0592417E4,1.1173258E4,1.0177997E4,4.144195E2,1.0988491E4,1.8476657E2,1.0097319E4,8.067731E1,3.8423405E1,3.7599606E2,7.9107666E1,1.0909384E4,1.5622647E2,2.85401E1,1.0064323E4,3.299609E1,2.1641426E1,5.9035885E1,8.884647E0,3.6711142E2,5.1039375E1,2.8068287E1,1.7870995E1,1.0891513E4,1.5395624E2,2.270222E0,2.3852846E1,4.687255E0,9.637108E3,4.2721582E2,2.537207E1,7.624021E0,1.9971766E1,1.6696603E0,5.5791225E1,3.2446601E0,7.7409353E0,1.1437123E0,3.624199E2,4.6915393E0,1.4841389E1,1.3226898E1,9.523852E1,1.0796273E4,1.4513704E1,1.3944254E2,1.200134E0,1.0700879E0],"tree_param":{"num_deleted":"0","num_feature":"44","num_nodes":"49","size_leaf_vector":"1"}},{"base_weights":[9.044346E-3,-1.3344046E-1,1.2178729E0,-1.3193132E-1,1.2343538E0,-8.52568E-2,1.23472236E-1],"categories":[],"categories_nodes":[],"categories_segments":[],"categories_sizes":[],"default_left":[0,0,0,0,0,0,0],"id":8,"left_children":[1,-1,3,-1,5,-1,-1],"loss_changes":[3.3090992E4,0E0,4.5011914E2,0E0,9.250977E0,0E0,0E0],"parents":[2147483647,0,0,2,2,4,4],"right_children":[2,-1,4,-1,6,-1,-1],"split_conditions":[7.443825E-1,-1.3344046E-1,5.270214E-1,-1.3193132E-1,-3.2395288E-1,-8.52568E-2,1.23472236E-1],"split_indices":[2,0,15,0,16,0,0],"split_type":[0,0,0,0,0,0,0],"sum_hessian":[2.0374236E4,9.649747E3,1.0724489E4,6.870407E1,1.0655785E4,1.4735296E0,1.0654312E4],"tree_param":{"num_deleted":"0","num_feature":"44","num_nodes":"7","size_leaf_vector":"1"}},{"base_weights":[8.845524E-3,-1.2926263E-1,1.1907248E0,-1.2778924E-1,1.2068942E0,-8.644378E-2,1.20734826E-1],"categories":[],"categories_nodes":[],"categories_segments":[],"categories_sizes":[],"default_left":[0,0,0,0,0,0,0],"id":9,"left_children":[1,-1,3,-1,5,-1,-1],"loss_changes":[2.905652E4,0E0,3.9670703E2,0E0,1.0295898E1,0E0,0E0],"parents":[2147483647,0,0,2,2,4,4],"right_children":[2,-1,4,-1,6,-1,-1],"split_conditions":[7.443825E-1,-1.2926263E-1,-3.0874795E-1,-1.2778924E-1,5.270214E-1,-8.644378E-2,1.20734826E-1],"split_indices":[2,0,16,0,15,0,0],"split_type":[0,0,0,0,0,0,0],"sum_hessian":[1.8888162E4,8.989231E3,9.898931E3,6.3907597E1,9.835023E3,1.7387516E0,9.833284E3],"tree_param":{"num_deleted":"0","num_feature":"44","num_nodes":"7","size_leaf_vector":"1"}},{"base_weights":[8.951656E-3,-1.2571412E-1,1.1665434E0,-1.2411654E-1,1.1832958E0,-5.4407198E-2,1.18356384E-1],"categories":[],"categories_nodes":[],"categories_segments":[],"categories_sizes":[],"default_left":[0,0,0,0,0,0,0],"id":10,"left_children":[1,-1,3,-1,5,-1,-1],"loss_changes":[2.557379E4,0E0,3.6912695E2,0E0,4.834961E0,0E0,0E0],"parents":[2147483647,0,0,2,2,4,4],"right_children":[2,-1,4,-1,6,-1,-1],"split_conditions":[7.443825E-1,-1.2571412E-1,5.270214E-1,-1.2411654E-1,-8.3452486E-2,-5.4407198E-2,1.18356384E-1],"split_indices":[2,0,15,0,17,0,0],"split_type":[0,0,0,0,0,0,0],"sum_hessian":[1.744714E4,8.333001E3,9.11414E3,6.2471455E1,9.051669E3,1.0892833E0,9.050579E3],"tree_param":{"num_deleted":"0","num_feature":"44","num_nodes":"7","size_leaf_vector":"1"}},{"base_weights":[8.3585605E-3,-1.2267355E-1,1.146224E0,-1.2125104E-1,1.1625085E0,-8.7864906E-2,1.1631302E-1],"categories":[],"categories_nodes":[],"categories_segments":[],"categories_sizes":[],"default_left":[0,0,0,0,0,0,0],"id":11,"left_children":[1,-1,3,-1,5,-1,-1],"loss_changes":[2.2588475E4,0E0,3.227422E2,0E0,1.1568359E1,0E0,0E0],"parents":[2147483647,0,0,2,2,4,4],"right_children":[2,-1,4,-1,6,-1,-1],"split_conditions":[7.443825E-1,-1.2267355E-1,-3.0874795E-1,-1.2125104E-1,5.270214E-1,-8.7864906E-2,1.1631302E-1],"split_indices":[2,0,16,0,15,0,0],"split_type":[0,0,0,0,0,0,0],"sum_hessian":[1.6070963E4,7.7062017E3,8.364761E3,5.684954E1,8.307911E3,2.1000009E0,8.305812E3],"tree_param":{"num_deleted":"0","num_feature":"44","num_nodes":"7","size_leaf_vector":"1"}},{"base_weights":[7.1029332E-3,-1.20054975E-1,1.1287906E0,-1.1831113E-1,1.1447612E0,-2.3114456E-2,1.1449832E-1],"categories":[],"categories_nodes":[],"categories_segments":[],"categories_sizes":[],"default_left":[0,0,0,0,0,0,0],"id":12,"left_children":[1,-1,3,-1,5,-1,-1],"loss_changes":[2.0131074E4,0E0,2.8583496E2,0E0,2.6015625E0,0E0,0E0],"parents":[2147483647,0,0,2,2,4,4],"right_children":[2,-1,4,-1,6,-1,-1],"split_conditions":[7.443825E-1,-1.20054975E-1,5.270214E-1,-1.1831113E-1,-8.341963E-2,-2.3114456E-2,1.1449832E-1],"split_indices":[2,0,15,0,17,0,0],"split_type":[0,0,0,0,0,0,0],"sum_hessian":[1.4859168E4,7.155359E3,7.703809E3,5.2351376E1,7.6514575E3,1.0660701E0,7.6503916E3],"tree_param":{"num_deleted":"0","num_feature":"44","num_nodes":"7","size_leaf_vector":"1"}},{"base_weights":[8.790628E-3,-1.17785074E-1,1.1132936E0,-1.1624944E-1,1.1288788E0,-7.380685E-2,1.1293667E-1],"categories":[],"categories_nodes":[],"categories_segments":[],"categories_sizes":[],"default_left":[0,0,0,0,0,0,0],"id":13,"left_children":[1,-1,3,-1,5,-1,-1],"loss_changes":[1.7845342E4,0E0,2.5143457E2,0E0,7.211914E0,0E0,0E0],"parents":[2147483647,0,0,2,2,4,4],"right_children":[2,-1,4,-1,6,-1,-1],"split_conditions":[7.443825E-1,-1.17785074E-1,-3.0874795E-1,-1.1624944E-1,5.270214E-1,-7.380685E-2,1.1293667E-1],"split_indices":[2,0,16,0,15,0,0],"split_type":[0,0,0,0,0,0,0],"sum_hessian":[1.3613655E4,6.5627686E3,7.050887E3,4.745734E1,7.0034297E3,1.4344174E0,7.001995E3],"tree_param":{"num_deleted":"0","num_feature":"44","num_nodes":"7","size_leaf_vector":"1"}},{"base_weights":[9.269268E-3,-1.0421945E0,1.0510215E0,-1.1145129E0,8.073956E-1,-1.1560279E-1,1.0745678E0,-1.145439E0,-5.222246E-1,-1.1075481E-1,1.0092738E0,1.0916888E0,-1.0958984E0,-1.1490428E0,-1.9627668E-1,-1.0357887E0,4.7475606E-1,-1.0202525E-1,1.0777097E0,-1.1130183E-1,1.0999718E0,-1.1344254E-1,9.002042E-3,-1.14986144E-1,2.6750106E-2,-9.962651E-2,7.7276856E-2,-1.1576667E-1,-5.105896E-2,8.346184E-2,-8.422222E-2,-6.906062E-2,1.0932212E-1,1.1041983E-1,-7.6222114E-2],"categories":[],"categories_nodes":[],"categories_segments":[],"categories_sizes":[],"default_left":[0,0,0,0,0,0,0,0,0,0,0,0,0,0,0,0,0,0,0,0,0,0,0,0,0,0,0,0,0,0,0,0,0,0,0],"id":14,"left_children":[1,3,5,7,9,-1,11,13,15,-1,17,19,21,23,25,27,29,-1,31,-1,33,-1,-1,-1,-1,-1,-1,-1,-1,-1,-1,-1,-1,-1,-1],"loss_changes":[1.3732497E4,8.354751E2,3.285122E2,1.09396484E2,9.210379E1,0E0,2.3276514E2,1.9293457E1,1.5400775E2,0E0,3.074411E1,1.1414111E2,2.35326E0,6.898926E0,1.8437279E1,1.2096054E1,4.933916E1,0E0,6.4317017E0,0E0,4.9331055E1,0E0,0E0,0E0,0E0,0E0,0E0,0E0,0E0,0E0,0E0,0E0,0E0,0E0,0E0],"parents":[2147483647,0,0,1,1,2,2,3,3,4,4,6,6,7,7,8,8,10,10,11,11,12,12,13,13,14,14,15,15,16,16,18,18,20,20],"right_children":[2,4,6,8,10,-1,12,14,16,-1,18,20,22,24,26,28,30,-1,32,-1,34,-1,-1,-1,-1,-1,-1,-1,-1,-1,-1,-1,-1,-1,-1],"split_conditions":[-2.748762E-1,-3.3998573E-1,5.270214E-1,1.1277329E0,-2.7415356E-1,-1.1560279E-1,2.6239383E-1,1.0909827E0,-2.8681776E-1,-1.1075481E-1,5.270214E-1,-2.7415356E-1,-1.8717326E-1,2.9032147E-1,-2.926658E-1,-3.034847E-1,-7.411756E-2,-1.0202525E-1,-3.1020996E-1,-1.1130183E-1,1.6060935E0,-1.1344254E-1,9.002042E-3,-1.14986144E-1,2.6750106E-2,-9.962651E-2,7.7276856E-2,-1.1576667E-1,-5.105896E-2,8.346184E-2,-8.422222E-2,-6.906062E-2,1.0932212E-1,1.1041983E-1,-7.6222114E-2],"split_indices":[43,41,15,26,6,0,10,30,16,0,15,6,41,40,16,16,10,0,16,0,9,0,0,0,0,0,0,0,0,0,0,0,0,0,0],"split_type":[0,0,0,0,0,0,0,0,0,0,0,0,0,0,0,0,0,0,0,0,0,0,0,0,0,0,0,0,0,0,0,0,0,0,0],"sum_hessian":[1.2534918E4,6.2383804E3,6.2965376E3,6.0040225E3,2.3435799E2,6.595895E1,6.2305786E3,5.7051943E3,2.9882806E2,2.1922537E1,2.1243546E2,6.1823086E3,4.8270054E1,5.6834043E3,2.1790026E1,1.97205E2,1.01623055E2,6.4759927E0,2.0595946E2,2.2640585E1,6.159668E3,4.6793304E1,1.4767524E0,5.68031E3,3.0943422E0,1.1920802E1,9.869224E0,1.590837E2,3.81213E1,8.010166E1,2.1521399E1,1.4124914E0,2.0454697E2,6.146125E3,1.35427065E1],"tree_param":{"num_deleted":"0","num_feature":"44","num_nodes":"35","size_leaf_vector":"1"}},{"base_weights":[7.609633E-3,-1.1412946E-1,1.0874029E0,-1.1204751E-1,1.102909E-1],"categories":[],"categories_nodes":[],"categories_segments":[],"categories_sizes":[],"default_left":[0,0,0,0,0],"id":15,"left_children":[1,-1,3,-1,-1],"loss_changes":[1.4253198E4,0E0,2.0400098E2,0E0,0E0],"parents":[2147483647,0,0,2,2],"right_children":[2,-1,4,-1,-1],"split_conditions":[7.443825E-1,-1.1412946E-1,-3.1020996E-1,-1.1204751E-1,1.102909E-1],"split_indices":[2,0,16,0,0],"split_type":[0,0,0,0,0],"sum_hessian":[1.1487147E4,5.5654404E3,5.921707E3,4.080124E1,5.880906E3],"tree_param":{"num_deleted":"0","num_feature":"44","num_nodes":"5","size_leaf_vector":"1"}},{"base_weights":[1.0070326E-2,-1.0100263E0,1.0261704E0,-1.0801088E0,7.737183E-1,1.0592699E0,-7.739104E-1,-1.1109158E0,-5.032428E-1,-1.07210234E-1,9.8414975E-1,-1.1145394E-1,1.0752683E0,-1.0083135E0,8.0913746E-1,-1.1143827E0,-1.9219626E-1,1.0561033E-1,-9.259847E-1,-9.484663E-2,1.0431522E0,-1.04632E-1,1.0805955E0,-3.0744758E-1,-1.0751401E0,9.994348E-2,-5.3627796E-2,-1.1163483E-1,-3.3232424E-2,4.0482443E-2,-9.5402166E-2,-1.108632E-1,1.0239533E-1,-2.5059655E-3,-1.0149367E-1,1.0694265E-1,-3.511822E-2,4.5049112E-2,1.0886329E-1,4.6001825E-2,-7.03408E-2,-1.08559325E-1,-4.437489E-2],"categories":[],"categories_nodes":[],"categories_segments":[],"categories_sizes":[],"default_left":[0,0,0,0,0,0,0,0,0,0,0,0,0,0,0,0,0,0,0,0,0,0,0,0,0,0,0,0,0,0,0,0,0,0,0,0,0,0,0,0,0,0,0],"id":16,"left_children":[1,3,5,7,9,11,13,15,17,-1,19,-1,21,23,25,27,29,31,33,-1,35,-1,37,39,41,-1,-1,-1,-1,-1,-1,-1,-1,-1,-1,-1,-1,-1,-1,-1,-1,-1,-1],"loss_changes":[1.0881045E4,6.5570166E2,3.1416895E2,8.902539E1,7.820339E1,1.8080908E2,3.6266468E1,1.5024414E1,6.634571E1,0E0,2.137967E1,0E0,5.908252E1,3.5877686E0,3.8327055E0,6.956543E0,9.116935E0,1.19750595E2,1.2156754E1,0E0,6.7499084E0,0E0,2.5413086E1,2.9622018E0,1.9721985E-2,0E0,0E0,0E0,0E0,0E0,0E0,0E0,0E0,0E0,0E0,0E0,0E0,0E0,0E0,0E0,0E0,0E0,0E0],"parents":[2147483647,0,0,1,1,2,2,3,3,4,4,5,5,6,6,7,7,8,8,10,10,12,12,13,13,14,14,15,15,16,16,17,17,18,18,20,20,22,22,23,23,24,24],"right_children":[2,4,6,8,10,12,14,16,18,-1,20,-1,22,24,26,28,30,32,34,-1,36,-1,38,40,42,-1,-1,-1,-1,-1,-1,-1,-1,-1,-1,-1,-1,-1,-1,-1,-1,-1,-1],"split_conditions":[-2.748762E-1,-3.3998573E-1,4.7051927E-1,1.1277329E0,-2.7415356E-1,5.270214E-1,-1.701941E-1,1.0909827E0,-9.643906E-2,-1.07210234E-1,5.270214E-1,-1.1145394E-1,-2.7415356E-1,5.874282E-2,-1.2938573E0,8.907747E-3,1.870401E-1,5.270214E-1,-2.2099897E-1,-9.484663E-2,4.7051927E-1,-1.04632E-1,-4.267768E-1,-2.0844977E0,-2.1547186E-1,9.994348E-2,-5.3627796E-2,-1.1163483E-1,-3.3232424E-2,4.0482443E-2,-9.5402166E-2,-1.108632E-1,1.0239533E-1,-2.5059655E-3,-1.0149367E-1,1.0694265E-1,-3.511822E-2,4.5049112E-2,1.0886329E-1,4.6001825E-2,-7.03408E-2,-1.08559325E-1,-4.437489E-2],"split_indices":[43,41,14,26,6,15,41,30,14,0,15,0,6,0,3,39,14,15,8,0,14,0,40,3,41,0,0,0,0,0,0,0,0,0,0,0,0,0,0,0,0,0,0],"split_type":[0,0,0,0,0,0,0,0,0,0,0,0,0,0,0,0,0,0,0,0,0,0,0,0,0,0,0,0,0,0,0,0,0,0,0,0,0,0,0,0,0,0,0],"sum_hessian":[1.0495668E4,5.2375366E3,5.2581313E3,5.039915E3,1.9762148E2,5.1635957E3,9.453585E1,4.7835293E3,2.5638574E2,1.9805014E1,1.7781645E2,3.7222507E1,5.126373E3,8.265946E1,1.1876391E1,4.765334E3,1.8195766E1,1.0537286E2,1.5101288E2,4.821276E0,1.7299518E2,1.2350691E1,5.1140225E3,7.682929E0,7.497653E1,1.0630022E1,1.2463695E0,4.7529604E3,1.2373065E1,1.0464024E1,7.7317424E0,4.528688E1,6.008598E1,1.3685454E1,1.3732742E2,1.7002432E2,2.9708602E0,6.512862E1,5.048894E3,2.559748E0,5.1231813E0,7.3047806E1,1.9287279E0],"tree_param":{"num_deleted":"0","num_feature":"44","num_nodes":"43","size_leaf_vector":"1"}},{"base_weights":[7.1907807E-3,-1.1130551E-1,1.0671332E0,-1.0871861E-1,1.0827829E0,-6.934204E-2,1.0834002E-1],"categories":[],"categories_nodes":[],"categories_segments":[],"categories_sizes":[],"default_left":[0,0,0,0,0,0,0],"id":17,"left_children":[1,-1,3,-1,5,-1,-1],"loss_changes":[1.1418274E4,0E0,1.6776367E2,0E0,6.130371E0,0E0,0E0],"parents":[2147483647,0,0,2,2,4,4],"right_children":[2,-1,4,-1,6,-1,-1],"split_conditions":[7.443825E-1,-1.1130551E-1,5.270214E-1,-1.0871861E-1,-3.2395288E-1,-6.934204E-2,1.0834002E-1],"split_indices":[2,0,15,0,16,0,0],"split_type":[0,0,0,0,0,0,0],"sum_hessian":[9.6142295E3,4.6741265E3,4.9401025E3,3.5133984E1,4.9049688E3,1.3140856E0,4.9036543E3],"tree_param":{"num_deleted":"0","num_feature":"44","num_nodes":"7","size_leaf_vector":"1"}},{"base_weights":[8.428569E-3,-1.1011469E-1,1.0587448E0,-1.07269995E-1,1.0743613E0,1.8722951E-2,1.0745454E-1],"categories":[],"categories_nodes":[],"categories_segments":[],"categories_sizes":[],"default_left":[0,0,0,0,0,0,0],"id":18,"left_children":[1,-1,3,-1,5,-1,-1],"loss_changes":[1.0251297E4,0E0,1.5156543E2,0E0,5.3222656E-1,0E0,0E0],"parents":[2147483647,0,0,2,2,4,4],"right_children":[2,-1,4,-1,6,-1,-1],"split_conditions":[7.443825E-1,-1.1011469E-1,5.270214E-1,-1.07269995E-1,-8.335393E-2,1.8722951E-2,1.0745454E-1],"split_indices":[2,0,15,0,17,0,0],"split_type":[0,0,0,0,0,0,0],"sum_hessian":[8.794338E3,4.2765034E3,4.5178345E3,3.2367954E1,4.4854663E3,1.1415148E0,4.4843247E3],"tree_param":{"num_deleted":"0","num_feature":"44","num_nodes":"7","size_leaf_vector":"1"}},{"base_weights":[8.19812E-3,-1.09057106E-1,1.0500363E0,-1.0614842E-1,1.0663345E0,-6.373773E-2,1.06695615E-1],"categories":[],"categories_nodes":[],"categories_segments":[],"categories_sizes":[],"default_left":[0,0,0,0,0,0,0],"id":19,"left_children":[1,-1,3,-1,5,-1,-1],"loss_changes":[9.1709795E3,0E0,1.4265039E2,0E0,5.001953E0,0E0,0E0],"parents":[2147483647,0,0,2,2,4,4],"right_children":[2,-1,4,-1,6,-1,-1],"split_conditions":[7.443825E-1,-1.09057106E-1,5.270214E-1,-1.0614842E-1,-3.3097053E-1,-6.373773E-2,1.06695615E-1],"split_indices":[2,0,15,0,16,0,0],"split_type":[0,0,0,0,0,0,0],"sum_hessian":[8.00941E3,3.8981746E3,4.111236E3,3.09991E1,4.0802366E3,1.1145307E0,4.079122E3],"tree_param":{"num_deleted":"0","num_feature":"44","num_nodes":"7","size_leaf_vector":"1"}},{"base_weights":[7.0103807E-3,-1.0811658E-1,1.0437735E0,-1.0490898E-1,1.0593112E-1],"categories":[],"categories_nodes":[],"categories_segments":[],"categories_sizes":[],"default_left":[0,0,0,0,0],"id":20,"left_children":[1,-1,3,-1,-1],"loss_changes":[8.251485E3,0E0,1.2290625E2,0E0,0E0],"parents":[2147483647,0,0,2,2],"right_children":[2,-1,4,-1,-1],"split_conditions":[7.443825E-1,-1.0811658E-1,-3.0874795E-1,-1.0490898E-1,1.0593112E-1],"split_indices":[2,0,16,0,0],"split_type":[0,0,0,0,0],"sum_hessian":[7.311972E3,3.5675085E3,3.7444636E3,2.7104029E1,3.7173596E3],"tree_param":{"num_deleted":"0","num_feature":"44","num_nodes":"5","size_leaf_vector":"1"}},{"base_weights":[9.962304E-3,-1.07278325E-1,1.0375206E0,-1.038505E-1,1.053313E0,-6.6222586E-2,1.0541504E-1],"categories":[],"categories_nodes":[],"categories_segments":[],"categories_sizes":[],"default_left":[0,0,0,0,0,0,0],"id":21,"left_children":[1,-1,3,-1,5,-1,-1],"loss_changes":[7.405147E3,0E0,1.13053955E2,0E0,5.5668945E0,0E0,0E0],"parents":[2147483647,0,0,2,2,4,4],"right_children":[2,-1,4,-1,6,-1,-1],"split_conditions":[7.443825E-1,-1.07278325E-1,5.270214E-1,-1.038505E-1,-3.2395288E-1,-6.6222586E-2,1.0541504E-1],"split_indices":[2,0,15,0,16,0,0],"split_type":[0,0,0,0,0,0,0],"sum_hessian":[6.653808E3,3.2398796E3,3.4139282E3,2.5284891E1,3.3886433E3,1.2676497E0,3.3873757E3],"tree_param":{"num_deleted":"0","num_feature":"44","num_nodes":"7","size_leaf_vector":"1"}},{"base_weights":[7.2238715E-3,-1.0653227E-1,1.0315301E0,-1.0292629E-1,1.0475136E0,-5.980709E-2,1.0482933E-1],"categories":[],"categories_nodes":[],"categories_segments":[],"categories_sizes":[],"default_left":[0,0,0,0,0,0,0],"id":22,"left_children":[1,-1,3,-1,5,-1,-1],"loss_changes":[6.6545034E3,0E0,1.0313086E2,0E0,4.57251E0,0E0,0E0],"parents":[2147483647,0,0,2,2,4,4],"right_children":[2,-1,4,-1,6,-1,-1],"split_conditions":[7.443825E-1,-1.0653227E-1,-3.0874795E-1,-1.0292629E-1,5.270214E-1,-5.980709E-2,1.0482933E-1],"split_indices":[2,0,16,0,15,0,0],"split_type":[0,0,0,0,0,0,0],"sum_hessian":[6.055169E3,2.957912E3,3.0972568E3,2.3349527E1,3.0739072E3,1.0930574E0,3.0728142E3],"tree_param":{"num_deleted":"0","num_feature":"44","num_nodes":"7","size_leaf_vector":"1"}},{"base_weights":[7.1582887E-3,-1.05866514E-1,1.026914E0,-1.0161648E-1,1.0425366E0,2.0345392E-2,1.0428771E0,7.28134E-1,1.0438744E-1,-5.884741E-2,9.528669E-2],"categories":[],"categories_nodes":[],"categories_segments":[],"categories_sizes":[],"default_left":[0,0,0,0,0,0,0,0,0,0,0],"id":23,"left_children":[1,-1,3,-1,5,-1,7,9,-1,-1,-1],"loss_changes":[5.990498E3,0E0,9.0963135E1,0E0,5.864258E-1,0E0,1.1694336E-1,4.1508493E0,0E0,0E0,0E0],"parents":[2147483647,0,0,2,2,4,4,6,6,7,7],"right_children":[2,-1,4,-1,6,-1,8,10,-1,-1,-1],"split_conditions":[7.443825E-1,-1.05866514E-1,5.270214E-1,-1.0161648E-1,-8.328822E-2,2.0345392E-2,-2.9971674E-1,-3.0317578E-1,1.0438744E-1,-5.884741E-2,9.528669E-2],"split_indices":[2,0,15,0,17,0,43,38,0,0,0],"split_type":[0,0,0,0,0,0,0,0,0,0,0],"sum_hessian":[5.5096475E3,2.6939546E3,2.8156929E3,2.0881086E1,2.7948118E3,1.3761879E0,2.7934358E3,1.1133465E1,2.7823022E3,1.3873082E0,9.746157E0],"tree_param":{"num_deleted":"0","num_feature":"44","num_nodes":"11","size_leaf_vector":"1"}},{"base_weights":[6.9305743E-3,-1.05271615E-1,1.0225192E0,-1.00701526E-1,1.037881E-1],"categories":[],"categories_nodes":[],"categories_segments":[],"categories_sizes":[],"default_left":[0,0,0,0,0],"id":24,"left_children":[1,-1,3,-1,-1],"loss_changes":[5.394284E3,0E0,8.08418E1,0E0,0E0],"parents":[2147483647,0,0,2,2],"right_children":[2,-1,4,-1,-1],"split_conditions":[7.443825E-1,-1.05271615E-1,-3.0874795E-1,-1.00701526E-1,1.037881E-1],"split_indices":[2,0,16,0,0],"split_type":[0,0,0,0,0],"sum_hessian":[5.010506E3,2.4520476E3,2.5584583E3,1.8734812E1,2.5397236E3],"tree_param":{"num_deleted":"0","num_feature":"44","num_nodes":"5","size_leaf_vector":"1"}},{"base_weights":[8.232929E-3,-1.0473454E-1,1.0182374E0,-9.987097E-2,1.0338723E-1],"categories":[],"categories_nodes":[],"categories_segments":[],"categories_sizes":[],"default_left":[0,0,0,0,0],"id":25,"left_children":[1,-1,3,-1,-1],"loss_changes":[4.8603193E3,0E0,7.4498535E1,0E0,0E0],"parents":[2147483647,0,0,2,2],"right_children":[2,-1,4,-1,-1],"split_conditions":[7.443825E-1,-1.0473454E-1,-3.0874795E-1,-9.987097E-2,1.0338723E-1],"split_indices":[2,0,16,0,0],"split_type":[0,0,0,0,0],"sum_hessian":[4.556805E3,2.2281152E3,2.3286902E3,1.742893E1,2.3112612E3],"tree_param":{"num_deleted":"0","num_feature":"44","num_nodes":"5","size_leaf_vector":"1"}},{"base_weights":[6.775753E-3,-1.0425516E-1,1.0138509E0,-9.936875E-2,1.0302364E0,-1.5326887E-2,1.0310521E-1],"categories":[],"categories_nodes":[],"categories_segments":[],"categories_sizes":[],"default_left":[0,0,0,0,0,0,0],"id":26,"left_children":[1,-1,3,-1,5,-1,-1],"loss_changes":[4.36608E3,0E0,7.03728E1,0E0,2.177246E0,0E0,0E0],"parents":[2147483647,0,0,2,2,4,4],"right_children":[2,-1,4,-1,6,-1,-1],"split_conditions":[7.443825E-1,-1.0425516E-1,5.270214E-1,-9.936875E-2,-3.034847E-1,-1.5326887E-2,1.0310521E-1],"split_indices":[2,0,15,0,16,0,0],"split_type":[0,0,0,0,0,0,0],"sum_hessian":[4.129605E3,2.0223604E3,2.1072444E3,1.6577034E1,2.0906672E3,1.3113573E0,2.089356E3],"tree_param":{"num_deleted":"0","num_feature":"44","num_nodes":"7","size_leaf_vector":"1"}},{"base_weights":[7.5650187E-3,-1.0382315E-1,1.0108442E0,-9.829437E-2,1.0272691E0,-3.044301E-2,1.0282667E-1],"categories":[],"categories_nodes":[],"categories_segments":[],"categories_sizes":[],"default_left":[0,0,0,0,0,0,0],"id":27,"left_children":[1,-1,3,-1,5,-1,-1],"loss_changes":[3.9432698E3,0E0,6.3823853E1,0E0,2.8408203E0,0E0,0E0],"parents":[2147483647,0,0,2,2,4,4],"right_children":[2,-1,4,-1,6,-1,-1],"split_conditions":[7.443825E-1,-1.0382315E-1,5.270214E-1,-9.829437E-2,-3.034847E-1,-3.044301E-2,1.0282667E-1],"split_indices":[2,0,15,0,16,0,0],"split_type":[0,0,0,0,0,0,0],"sum_hessian":[3.7562654E3,1.8391454E3,1.9171201E3,1.5183447E1,1.9019366E3,1.1959502E0,1.9007407E3],"tree_param":{"num_deleted":"0","num_feature":"44","num_nodes":"7","size_leaf_vector":"1"}},{"base_weights":[8.540848E-3,-1.0343575E-1,1.0080665E0,-9.738686E-2,1.0244565E0,-8.744316E-3,1.0252895E-1],"categories":[],"categories_nodes":[],"categories_segments":[],"categories_sizes":[],"default_left":[0,0,0,0,0,0,0],"id":28,"left_children":[1,-1,3,-1,5,-1,-1],"loss_changes":[3.5540845E3,0E0,5.7550415E1,0E0,1.6895752E0,0E0,0E0],"parents":[2147483647,0,0,2,2,4,4],"right_children":[2,-1,4,-1,6,-1,-1],"split_conditions":[7.443825E-1,-1.0343575E-1,5.270214E-1,-9.738686E-2,-3.034847E-1,-8.744316E-3,1.0252895E-1],"split_indices":[2,0,15,0,16,0,0],"split_type":[0,0,0,0,0,0,0],"sum_hessian":[3.4075088E3,1.6675566E3,1.739952E3,1.3791693E1,1.7261604E3,1.214488E0,1.7249459E3],"tree_param":{"num_deleted":"0","num_feature":"44","num_nodes":"7","size_leaf_vector":"1"}},{"base_weights":[7.3365383E-3,-1.03086315E-1,1.0046837E0,-8.399445E-1,1.0173532E0,-9.183411E-2,-1.0698865E-2,2.8577307E-1,1.0207546E-1,-8.661525E-1,8.632235E-2,-1.3846773E-1,-6.149253E-3],"categories":[],"categories_nodes":[],"categories_segments":[],"categories_sizes":[],"default_left":[0,0,0,0,0,0,0,0,0,0,0,0,0],"id":29,"left_children":[1,-1,3,5,7,-1,-1,9,-1,11,-1,-1,-1],"loss_changes":[3.2057764E3,0E0,3.7758667E1,5.5217886E-1,3.6120605E0,0E0,0E0,6.5006914E0,0E0,1.3280506E0,0E0,0E0,0E0],"parents":[2147483647,0,0,2,2,3,3,4,4,7,7,9,9],"right_children":[2,-1,4,6,8,-1,-1,10,-1,12,-1,-1,-1],"split_conditions":[7.443825E-1,-1.03086315E-1,-8.328822E-2,-8.341963E-2,-2.9971674E-1,-9.183411E-2,-1.0698865E-2,-3.0317578E-1,1.0207546E-1,-8.2861155E-2,8.632235E-2,-1.3846773E-1,-6.149253E-3],"split_indices":[2,0,17,17,43,0,0,38,0,17,0,0,0],"split_type":[0,0,0,0,0,0,0,0,0,0,0,0,0],"sum_hessian":[3.0940356E3,1.5159535E3,1.5780823E3,1.0319454E1,1.5677628E3,9.093851E0,1.2256027E0,7.6488E0,1.560114E3,2.3870463E0,5.2617536E0,1.01327E0,1.3737762E0],"tree_param":{"num_deleted":"0","num_feature":"44","num_nodes":"13","size_leaf_vector":"1"}},{"base_weights":[5.5831554E-3,-1.02771915E-1,1.0010576E0,-9.606943E-2,1.0181448E0,-2.2033058E-2,1.0194395E0,5.7206297E-1,1.02082334E-1,8.4351465E-2,-4.6335116E-2],"categories":[],"categories_nodes":[],"categories_segments":[],"categories_sizes":[],"default_left":[0,0,0,0,0,0,0,0,0,0,0],"id":30,"left_children":[1,-1,3,-1,5,-1,7,9,-1,-1,-1],"loss_changes":[2.8917002E3,0E0,4.8973877E1,0E0,2.5013428E0,0E0,2.944336E-1,2.2597885E0,0E0,0E0,0E0],"parents":[2147483647,0,0,2,2,4,4,6,6,7,7],"right_children":[2,-1,4,-1,6,-1,8,10,-1,-1,-1],"split_conditions":[7.443825E-1,-1.02771915E-1,5.270214E-1,-9.606943E-2,-3.034847E-1,-2.2033058E-2,-8.301885E-2,-1.5910067E-1,1.02082334E-1,8.4351465E-2,-4.6335116E-2],"split_indices":[2,0,15,0,16,0,17,0,0,0,0],"split_type":[0,0,0,0,0,0,0,0,0,0,0],"sum_hessian":[2.8092258E3,1.3784071E3,1.4308187E3,1.1878243E1,1.4189406E3,1.3050369E0,1.4176355E3,5.6495166E0,1.411986E3,4.6228843E0,1.0266328E0],"tree_param":{"num_deleted":"0","num_feature":"44","num_nodes":"11","size_leaf_vector":"1"}},{"base_weights":[8.445534E-3,-1.02487266E-1,9.990723E-1,-9.484671E-2,1.0160155E0,-1.9165976E-2,1.0171514E0,5.5807716E-1,1.0186704E-1,8.365943E-2,-4.8052065E-2],"categories":[],"categories_nodes":[],"categories_segments":[],"categories_sizes":[],"default_left":[0,0,0,0,0,0,0,0,0,0,0],"id":31,"left_children":[1,-1,3,-1,5,-1,7,9,-1,-1,-1],"loss_changes":[2.6078945E3,0E0,4.3883667E1,0E0,1.9644775E0,0E0,3.3044434E-1,2.2714188E0,0E0,0E0,0E0],"parents":[2147483647,0,0,2,2,4,4,6,6,7,7],"right_children":[2,-1,4,-1,6,-1,8,10,-1,-1,-1],"split_conditions":[7.443825E-1,-1.02487266E-1,5.270214E-1,-9.484671E-2,-3.034847E-1,-1.9165976E-2,-8.301885E-2,1.6262889E-1,1.0186704E-1,8.365943E-2,-4.8052065E-2],"split_indices":[2,0,15,0,16,0,17,9,0,0,0],"split_type":[0,0,0,0,0,0,0,0,0,0,0],"sum_hessian":[2.5456853E3,1.2459774E3,1.2997079E3,1.0735481E1,1.2889724E3,1.0535431E0,1.287919E3,5.462599E0,1.2824563E3,4.460846E0,1.0017529E0],"tree_param":{"num_deleted":"0","num_feature":"44","num_nodes":"11","size_leaf_vector":"1"}},{"base_weights":[8.848725E-3,-1.0222747E-1,9.9670464E-1,-9.397021E-2,1.014099E0,-4.2338166E-3,1.0150975E0,5.754806E-1,1.0164831E-1,-2.5206104E-2,8.114147E-2],"categories":[],"categories_nodes":[],"categories_segments":[],"categories_sizes":[],"default_left":[0,0,0,0,0,0,0,0,0,0,0],"id":32,"left_children":[1,-1,3,-1,5,-1,7,9,-1,-1,-1],"loss_changes":[2.348691E3,0E0,4.061743E1,0E0,1.2746582E0,0E0,1.2561035E-1,1.3701577E0,0E0,0E0,0E0],"parents":[2147483647,0,0,2,2,4,4,6,6,7,7],"right_children":[2,-1,4,-1,6,-1,8,10,-1,-1,-1],"split_conditions":[7.443825E-1,-1.0222747E-1,5.270214E-1,-9.397021E-2,-8.328822E-2,-4.2338166E-3,-2.9971674E-1,-3.6262462E-1,1.0164831E-1,-2.5206104E-2,8.114147E-2],"split_indices":[2,0,15,0,17,0,43,41,0,0,0],"split_type":[0,0,0,0,0,0,0,0,0,0,0],"sum_hessian":[2.3037993E3,1.1271969E3,1.1766024E3,1.0002991E1,1.1665994E3,1.0625854E0,1.1655369E3,4.970088E0,1.1605668E3,1.0874592E0,3.882629E0],"tree_param":{"num_deleted":"0","num_feature":"44","num_nodes":"11","size_leaf_vector":"1"}},{"base_weights":[7.479156E-3,-1.0199304E-1,9.9390054E-1,-9.3220584E-2,1.0115356E0,4.67507E-1,1.0136149E-1,-5.850729E-2,8.1105135E-2],"categories":[],"categories_nodes":[],"categories_segments":[],"categories_sizes":[],"default_left":[0,0,0,0,0,0,0,0,0],"id":33,"left_children":[1,-1,3,-1,5,7,-1,-1,-1],"loss_changes":[2.1244668E3,0E0,3.7269165E1,0E0,7.2558594E-1,2.6054842E0,0E0,0E0,0E0],"parents":[2147483647,0,0,2,2,4,4,5,5],"right_children":[2,-1,4,-1,6,8,-1,-1,-1],"split_conditions":[7.443825E-1,-1.0199304E-1,-3.0874795E-1,-9.3220584E-2,-8.301885E-2,-3.0317578E-1,1.0136149E-1,-5.850729E-2,8.1105135E-2],"split_indices":[2,0,16,0,17,38,0,0,0],"split_type":[0,0,0,0,0,0,0,0,0],"sum_hessian":[2.094254E3,1.0257977E3,1.068456E3,9.223283E0,1.0592328E3,4.8930144E0,1.0543397E3,1.0310248E0,3.8619897E0],"tree_param":{"num_deleted":"0","num_feature":"44","num_nodes":"9","size_leaf_vector":"1"}},{"base_weights":[6.1496976E-3,-1.0178049E-1,9.926818E-1,-9.168922E-2,1.009792E0,-1.7269382E-2,1.0112488E0,4.270217E-1,1.0132964E-1,-4.7481433E-2,7.677474E-2],"categories":[],"categories_nodes":[],"categories_segments":[],"categories_sizes":[],"default_left":[0,0,0,0,0,0,0,0,0,0,0],"id":34,"left_children":[1,-1,3,-1,5,-1,7,9,-1,-1,-1],"loss_changes":[1.9213038E3,0E0,3.2575867E1,0E0,1.8293457E0,0E0,7.150879E-1,1.9253477E0,0E0,0E0,0E0],"parents":[2147483647,0,0,2,2,4,4,6,6,7,7],"right_children":[2,-1,4,-1,6,-1,8,10,-1,-1,-1],"split_conditions":[7.443825E-1,-1.0178049E-1,5.270214E-1,-9.168922E-2,-3.034847E-1,-1.7269382E-2,-2.9971674E-1,-2.6634958E-1,1.0132964E-1,-4.7481433E-2,7.677474E-2],"split_indices":[2,0,15,0,16,0,43,16,0,0,0],"split_type":[0,0,0,0,0,0,0,0,0,0,0],"sum_hessian":[1.899972E3,9.322878E2,9.6768427E2,8.12665E0,9.595576E2,1.0360531E0,9.5852155E2,4.0794625E0,9.544421E2,1.0107254E0,3.068737E0],"tree_param":{"num_deleted":"0","num_feature":"44","num_nodes":"11","size_leaf_vector":"1"}},{"base_weights":[8.264779E-3,-1.01585925E-1,9.89791E-1,-9.109598E-2,1.007837E0,3.3376244E-1,1.0112921E-1,-8.2222745E-2,8.0233574E-2],"categories":[],"categories_nodes":[],"categories_segments":[],"categories_sizes":[],"default_left":[0,0,0,0,0,0,0,0,0],"id":35,"left_children":[1,-1,3,-1,5,7,-1,-1,-1],"loss_changes":[1.7310741E3,0E0,3.1080261E1,0E0,1.6922607E0,3.8755438E0,0E0,0E0,0E0],"parents":[2147483647,0,0,2,2,4,4,5,5],"right_children":[2,-1,4,-1,6,8,-1,-1,-1],"split_conditions":[7.443825E-1,-1.01585925E-1,5.270214E-1,-9.109598E-2,-8.301885E-2,-2.9350662E-1,1.0112921E-1,-8.2222745E-2,8.0233574E-2],"split_indices":[2,0,15,0,17,43,0,0,0],"split_type":[0,0,0,0,0,0,0,0,0],"sum_hessian":[1.7201108E3,8.4177167E2,8.783392E2,7.7953377E0,8.705439E2,4.936946E0,8.6560693E2,1.2062731E0,3.7306728E0],"tree_param":{"num_deleted":"0","num_feature":"44","num_nodes":"9","size_leaf_vector":"1"}},{"base_weights":[8.198615E-3,-1.0140902E-1,9.882032E-1,-8.9650184E-2,1.0059029E0,2.1611105E-1,1.0097713E0,-9.724065E-2,7.657756E-2,2.696285E-2,1.0104426E-1],"categories":[],"categories_nodes":[],"categories_segments":[],"categories_sizes":[],"default_left":[0,0,0,0,0,0,0,0,0,0,0],"id":36,"left_children":[1,-1,3,-1,5,7,9,-1,-1,-1,-1],"loss_changes":[1.5660759E3,0E0,2.7525208E1,0E0,2.1989136E0,4.0950756E0,1.1853027E-1,0E0,0E0,0E0,0E0],"parents":[2147483647,0,0,2,2,4,4,5,5,6,6],"right_children":[2,-1,4,-1,6,8,10,-1,-1,-1,-1],"split_conditions":[7.443825E-1,-1.0140902E-1,5.270214E-1,-8.9650184E-2,-2.9971674E-1,-3.0317578E-1,-3.023151E-1,-9.724065E-2,7.657756E-2,2.696285E-2,1.0104426E-1],"split_indices":[2,0,15,0,43,38,16,0,0,0,0],"split_type":[0,0,0,0,0,0,0,0,0,0,0],"sum_hessian":[1.5611874E3,7.6409216E2,7.970952E2,6.954084E0,7.901411E2,4.128582E0,7.860125E2,1.0623703E0,3.066212E0,1.0769951E0,7.8493555E2],"tree_param":{"num_deleted":"0","num_feature":"44","num_nodes":"11","size_leaf_vector":"1"}},{"base_weights":[7.4316883E-3,-1.01247266E-1,9.8651284E-1,-7.324821E-1,1.0011367E0,-8.377518E-2,-8.29057E-3,2.673937E-1,1.0051694E-1,-6.458365E-2,7.5476214E-2],"categories":[],"categories_nodes":[],"categories_segments":[],"categories_sizes":[],"default_left":[0,0,0,0,0,0,0,0,0,0,0],"id":37,"left_children":[1,-1,3,5,7,-1,-1,9,-1,-1,-1],"loss_changes":[1.4147452E3,0E0,1.8904419E1,3.869872E-1,1.8533325E0,0E0,0E0,2.8386178E0,0E0,0E0,0E0],"parents":[2147483647,0,0,2,2,3,3,4,4,7,7],"right_children":[2,-1,4,6,8,-1,-1,10,-1,-1,-1],"split_conditions":[7.443825E-1,-1.01247266E-1,-8.328822E-2,-8.346562E-2,-2.9971674E-1,-8.377518E-2,-8.29057E-3,-3.0317578E-1,1.0051694E-1,-6.458365E-2,7.5476214E-2],"split_indices":[2,0,17,17,43,0,0,38,0,0,0],"split_type":[0,0,0,0,0,0,0,0,0,0,0],"sum_hessian":[1.4147725E3,6.9292334E2,7.218491E2,5.6750054E0,7.1617413E2,4.6342883E0,1.0407171E0,4.2825723E0,7.1189154E2,1.3770701E0,2.9055023E0],"tree_param":{"num_deleted":"0","num_feature":"44","num_nodes":"11","size_leaf_vector":"1"}},{"base_weights":[6.909572E-3,-1.01098575E-1,9.8367155E-1,-8.826824E-2,1.0030936E0,2.0659134E-1,1.0072724E-1,-7.778898E-2,7.284188E-2],"categories":[],"categories_nodes":[],"categories_segments":[],"categories_sizes":[],"default_left":[0,0,0,0,0,0,0,0,0],"id":38,"left_children":[1,-1,3,-1,5,7,-1,-1,-1],"loss_changes":[1.2772261E3,0E0,2.4648254E1,0E0,1.9529419E0,2.9537003E0,0E0,0E0,0E0],"parents":[2147483647,0,0,2,2,4,4,5,5],"right_children":[2,-1,4,-1,6,8,-1,-1,-1],"split_conditions":[7.443825E-1,-1.01098575E-1,5.270214E-1,-8.826824E-2,-8.301885E-2,-2.9350662E-1,1.0072724E-1,-7.778898E-2,7.284188E-2],"split_indices":[2,0,15,0,17,43,0,0,0],"split_type":[0,0,0,0,0,0,0,0,0],"sum_hessian":[1.2826234E3,6.280696E2,6.5455383E2,6.2836504E0,6.482702E2,3.6465533E0,6.4462366E2,1.093275E0,2.5532782E0],"tree_param":{"num_deleted":"0","num_feature":"44","num_nodes":"9","size_leaf_vector":"1"}},{"base_weights":[7.3361737E-3,-1.00960575E-1,9.813433E-1,-8.752848E-2,1.0008557E0,2.5297108E-1,1.0042864E-1,-5.1388007E-2,6.770442E-2],"categories":[],"categories_nodes":[],"categories_segments":[],"categories_sizes":[],"default_left":[0,0,0,0,0,0,0,0,0],"id":39,"left_children":[1,-1,3,-1,5,7,-1,-1,-1],"loss_changes":[1.152043E3,0E0,2.2397827E1,0E0,1.2555542E0,1.6563072E0,0E0,0E0,0E0],"parents":[2147483647,0,0,2,2,4,4,5,5],"right_children":[2,-1,4,-1,6,8,-1,-1,-1],"split_conditions":[7.443825E-1,-1.00960575E-1,-3.0874795E-1,-8.752848E-2,-2.9971674E-1,-2.6342556E-1,1.0042864E-1,-5.1388007E-2,6.770442E-2],"split_indices":[2,0,16,0,43,16,0,0,0],"split_type":[0,0,0,0,0,0,0,0,0],"sum_hessian":[1.1610819E3,5.680037E2,5.930782E2,5.712037E0,5.8736615E2,3.0233207E0,5.8434283E2,1.0011568E0,2.0221639E0],"tree_param":{"num_deleted":"0","num_feature":"44","num_nodes":"9","size_leaf_vector":"1"}},{"base_weights":[8.65048E-3,-1.0083311E-1,9.7947776E-1,-8.560934E-2,9.9903816E-1,2.2128007E-1,1.0029822E-1,6.711831E-2,-5.4668903E-2],"categories":[],"categories_nodes":[],"categories_segments":[],"categories_sizes":[],"default_left":[0,0,0,0,0,0,0,0,0],"id":40,"left_children":[1,-1,3,-1,5,7,-1,-1,-1],"loss_changes":[1.0417944E3,0E0,2.0237793E1,0E0,1.4179077E0,1.742175E0,0E0,0E0,0E0],"parents":[2147483647,0,0,2,2,4,4,5,5],"right_children":[2,-1,4,-1,6,8,-1,-1,-1],"split_conditions":[7.443825E-1,-1.0083311E-1,-3.0874795E-1,-8.560934E-2,-8.301885E-2,-1.8662322E-1,1.0029822E-1,6.711831E-2,-5.4668903E-2],"split_indices":[2,0,16,0,17,8,0,0,0],"split_type":[0,0,0,0,0,0,0,0,0],"sum_hessian":[1.0531808E3,5.143448E2,5.3883594E2,5.230538E0,5.336054E2,2.9803197E0,5.306251E2,1.9588096E0,1.0215102E0],"tree_param":{"num_deleted":"0","num_feature":"44","num_nodes":"9","size_leaf_vector":"1"}},{"base_weights":[7.7554653E-3,-1.00714386E-1,9.789975E-1,-8.5928395E-2,1.0002431E0,-9.750995E-3,1.0030204E0,1.0050439E-1,3.3967692E-2],"categories":[],"categories_nodes":[],"categories_segments":[],"categories_sizes":[],"default_left":[0,0,0,0,0,0,0,0,0],"id":41,"left_children":[1,-1,3,-1,5,-1,7,-1,-1],"loss_changes":[9.4324146E2,0E0,1.995633E1,0E0,1.5729675E0,0E0,3.0651855E-1,0E0,0E0],"parents":[2147483647,0,0,2,2,4,4,6,6],"right_children":[2,-1,4,-1,6,-1,8,-1,-1],"split_conditions":[7.443825E-1,-1.00714386E-1,5.270214E-1,-8.5928395E-2,-3.023151E-1,-9.750995E-3,1.3060474E0,1.0050439E-1,3.3967692E-2],"split_indices":[2,0,15,0,16,0,9,0,0],"split_type":[0,0,0,0,0,0,0,0,0],"sum_hessian":[9.549127E2,4.6694333E2,4.8796936E2,5.1244936E0,4.8284485E2,1.1324606E0,4.817124E2,4.7973395E2,1.9784634E0],"tree_param":{"num_deleted":"0","num_feature":"44","num_nodes":"9","size_leaf_vector":"1"}},{"base_weights":[1.07980585E-2,-1.0060276E-1,9.7651774E-1,-8.3649844E-2,9.96917E-1,6.721572E-2,1.00303404E-1,-8.115073E-2,6.6284835E-2],"categories":[],"categories_nodes":[],"categories_segments":[],"categories_sizes":[],"default_left":[0,0,0,0,0,0,0,0,0],"id":42,"left_children":[1,-1,3,-1,5,7,-1,-1,-1],"loss_changes":[8.5252045E2,0E0,1.730191E1,0E0,2.43927E0,2.606867E0,0E0,0E0,0E0],"parents":[2147483647,0,0,2,2,4,4,5,5],"right_children":[2,-1,4,-1,6,8,-1,-1,-1],"split_conditions":[7.443825E-1,-1.0060276E-1,5.270214E-1,-8.3649844E-2,-2.9971674E-1,-2.789229E-1,1.00303404E-1,-8.115073E-2,6.6284835E-2],"split_indices":[2,0,15,0,43,16,0,0,0],"split_type":[0,0,0,0,0,0,0,0,0],"sum_hessian":[8.6617456E2,4.2190286E2,4.4427173E2,4.4980054E0,4.397737E2,2.9529545E0,4.3682077E2,1.0465598E0,1.9063946E0],"tree_param":{"num_deleted":"0","num_feature":"44","num_nodes":"9","size_leaf_vector":"1"}},{"base_weights":[7.3491763E-3,-1.0049813E-1,9.750921E-1,-8.199827E-2,9.9562126E-1,5.504038E-2,1.001673E0,-6.7654446E-2,6.1569214E-2,2.9580107E-2,1.0032608E-1],"categories":[],"categories_nodes":[],"categories_segments":[],"categories_sizes":[],"default_left":[0,0,0,0,0,0,0,0,0,0,0],"id":43,"left_children":[1,-1,3,-1,5,7,9,-1,-1,-1,-1],"loss_changes":[7.696174E2,0E0,1.5617065E1,0E0,2.2077332E0,1.8929743E0,1.4590454E-1,0E0,0E0,0E0,0E0],"parents":[2147483647,0,0,2,2,4,4,5,5,6,6],"right_children":[2,-1,4,-1,6,8,10,-1,-1,-1,-1],"split_conditions":[7.443825E-1,-1.0049813E-1,5.270214E-1,-8.199827E-2,-8.301885E-2,-2.8155452E-1,-2.9909867E-1,-6.7654446E-2,6.1569214E-2,2.9580107E-2,1.0032608E-1],"split_indices":[2,0,15,0,17,16,16,0,0,0,0],"split_type":[0,0,0,0,0,0,0,0,0,0,0],"sum_hessian":[7.835835E2,3.8295053E2,4.0063297E2,4.089648E0,3.9654333E2,2.5996087E0,3.9394373E2,1.0381864E0,1.5614222E0,1.3045336E0,3.926392E2],"tree_param":{"num_deleted":"0","num_feature":"44","num_nodes":"11","size_leaf_vector":"1"}},{"base_weights":[4.5016184E-3,-1.00399114E-1,9.7172E-1,-8.1638895E-2,9.938574E-1,-6.7602545E-3,1.0007312E0,-7.411306E-2,5.9639253E-2,2.9751062E-2,1.0024401E-1],"categories":[],"categories_nodes":[],"categories_segments":[],"categories_sizes":[],"default_left":[0,0,0,0,0,0,0,0,0,0,0],"id":44,"left_children":[1,-1,3,-1,5,7,9,-1,-1,-1,-1],"loss_changes":[6.94801E2,0E0,1.5203674E1,0E0,2.4801025E0,1.9686869E0,1.3098145E-1,0E0,0E0,0E0,0E0],"parents":[2147483647,0,0,2,2,4,4,5,5,6,6],"right_children":[2,-1,4,-1,6,8,10,-1,-1,-1,-1],"split_conditions":[7.443825E-1,-1.00399114E-1,5.270214E-1,-8.1638895E-2,-2.9971674E-1,-2.719052E-1,-2.9909867E-1,-7.411306E-2,5.9639253E-2,2.9751062E-2,1.0024401E-1],"split_indices":[2,0,15,0,43,16,16,0,0,0,0],"split_type":[0,0,0,0,0,0,0,0,0,0,0],"sum_hessian":[7.103001E2,3.4771204E2,3.6258807E2,3.995318E0,3.5859277E2,2.4467213E0,3.5614606E2,1.0001839E0,1.4465375E0,1.2878218E0,3.5485822E2],"tree_param":{"num_deleted":"0","num_feature":"44","num_nodes":"11","size_leaf_vector":"1"}},{"base_weights":[7.104629E-3,-1.0030279E-1,9.7096E-1,-8.096332E-2,9.9438477E-1,-1.4352034E-2,9.987259E-1,1.0017033E-1,2.107667E-2],"categories":[],"categories_nodes":[],"categories_segments":[],"categories_sizes":[],"default_left":[0,0,0,0,0,0,0,0,0],"id":45,"left_children":[1,-1,3,-1,5,-1,7,-1,-1],"loss_changes":[6.281806E2,0E0,1.4576019E1,0E0,1.7552795E0,0E0,5.5181885E-1,0E0,0E0],"parents":[2147483647,0,0,2,2,4,4,6,6],"right_children":[2,-1,4,-1,6,-1,8,-1,-1],"split_conditions":[7.443825E-1,-1.0030279E-1,5.270214E-1,-8.096332E-2,-3.023151E-1,-1.4352034E-2,1.3060474E0,1.0017033E-1,2.107667E-2],"split_indices":[2,0,15,0,16,0,9,0,0],"split_type":[0,0,0,0,0,0,0,0,0],"sum_hessian":[6.431997E2,3.140406E2,3.2915912E2,3.8382504E0,3.2532086E2,1.1145415E0,3.2420633E2,3.2271567E2,1.49066E0],"tree_param":{"num_deleted":"0","num_feature":"44","num_nodes":"9","size_leaf_vector":"1"}},{"base_weights":[5.394006E-3,-1.0021084E-1,9.694311E-1,-7.880025E-2,9.924775E-1,-5.6908004E-2,1.0002307E-1,-6.477462E-2,5.2987117E-2],"categories":[],"categories_nodes":[],"categories_segments":[],"categories_sizes":[],"default_left":[0,0,0,0,0,0,0,0,0],"id":46,"left_children":[1,-1,3,-1,5,7,-1,-1,-1],"loss_changes":[5.6766516E2,0E0,1.2878876E1,0E0,2.4590454E0,1.4219589E0,0E0,0E0,0E0],"parents":[2147483647,0,0,2,2,4,4,5,5],"right_children":[2,-1,4,-1,6,8,-1,-1,-1],"split_conditions":[7.443825E-1,-1.0021084E-1,5.270214E-1,-7.880025E-2,-2.9971674E-1,-2.6342556E-1,1.0002307E-1,-6.477462E-2,5.2987117E-2],"split_indices":[2,0,15,0,43,16,0,0,0],"split_type":[0,0,0,0,0,0,0,0,0],"sum_hessian":[5.824566E2,2.8478848E2,2.9766812E2,3.423357E0,2.9424475E2,2.111518E0,2.9213324E2,1.0003484E0,1.1111693E0],"tree_param":{"num_deleted":"0","num_feature":"44","num_nodes":"9","size_leaf_vector":"1"}},{"base_weights":[6.063544E-3,-1.0012082E-1,9.6612275E-1,-4.7034594E-1,9.9095494E-1,-9.8734814E-1,5.8282662E-2,4.2522198E-1,9.961172E-2,-1.1620008E-1,-3.6241613E-2,-1.3184425E-2,6.453521E-2],"categories":[],"categories_nodes":[],"categories_segments":[],"categories_sizes":[],"default_left":[0,0,0,0,0,0,0,0,0,0,0,0,0],"id":47,"left_children":[1,-1,3,5,7,9,-1,11,-1,-1,-1,-1,-1],"loss_changes":[5.1260443E2,0E0,1.0146896E1,3.4558156E0,3.5650635E-1,6.6559315E-3,0E0,5.952276E-1,0E0,0E0,0E0,0E0,0E0],"parents":[2147483647,0,0,2,2,3,3,4,4,5,5,7,7],"right_children":[2,-1,4,6,8,10,-1,12,-1,-1,-1,-1,-1],"split_conditions":[7.443825E-1,-1.0012082E-1,-8.301885E-2,-3.0317578E-1,-3.157684E-1,-2.9971674E-1,5.8282662E-2,-3.5130516E-1,9.961172E-2,-1.1620008E-1,-3.6241613E-2,-1.3184425E-2,6.453521E-2],"split_indices":[2,0,17,38,38,43,0,41,0,0,0,0,0],"split_type":[0,0,0,0,0,0,0,0,0,0,0,0,0],"sum_hessian":[5.2807513E2,2.576802E2,2.7039493E2,4.2899947E0,2.6610495E2,2.919375E0,1.3706195E0,3.160107E0,2.6294482E2,1.610014E0,1.3093611E0,1.0086517E0,2.1514552E0],"tree_param":{"num_deleted":"0","num_feature":"44","num_nodes":"13","size_leaf_vector":"1"}},{"base_weights":[3.6625057E-3,-1.0003264E-1,9.641069E-1,-7.567642E-2,9.879475E-1,-1.0892795E-1,9.985005E-2,-7.6000094E-2,5.457742E-2],"categories":[],"categories_nodes":[],"categories_segments":[],"categories_sizes":[],"default_left":[0,0,0,0,0,0,0,0,0],"id":48,"left_children":[1,-1,3,-1,5,7,-1,-1,-1],"loss_changes":[4.6284207E2,0E0,1.0811981E1,0E0,2.914566E0,1.7837119E0,0E0,0E0,0E0],"parents":[2147483647,0,0,2,2,4,4,5,5],"right_children":[2,-1,4,-1,6,8,-1,-1,-1],"split_conditions":[7.443825E-1,-1.0003264E-1,5.270214E-1,-7.567642E-2,-2.9971674E-1,-2.7599886E-1,9.985005E-2,-7.6000094E-2,5.457742E-2],"split_indices":[2,0,15,0,43,16,0,0,0],"split_type":[0,0,0,0,0,0,0,0,0],"sum_hessian":[4.7798932E2,2.336767E2,2.4431262E2,2.918329E0,2.413943E2,2.2114828E0,2.3918282E2,1.0281737E0,1.1833091E0],"tree_param":{"num_deleted":"0","num_feature":"44","num_nodes":"9","size_leaf_vector":"1"}},{"base_weights":[6.3706217E-3,-9.994296E-2,9.587872E-1,-7.6395206E-2,9.8440915E-1,-6.0616685E-3,9.935737E-1,3.0187992E-2,9.959109E-2],"categories":[],"categories_nodes":[],"categories_segments":[],"categories_sizes":[],"default_left":[0,0,0,0,0,0,0,0,0],"id":49,"left_children":[1,-1,3,-1,5,-1,7,-1,-1],"loss_changes":[4.1730988E2,0E0,1.0628372E1,0E0,2.1759033E0,0E0,5.3466797E-2,0E0,0E0],"parents":[2147483647,0,0,2,2,4,4,6,6],"right_children":[2,-1,4,-1,6,-1,8,-1,-1],"split_conditions":[7.443825E-1,-9.994296E-2,-3.1020996E-1,-7.6395206E-2,-8.301885E-2,-6.0616685E-3,-2.9763666E-1,3.0187992E-2,9.959109E-2],"split_indices":[2,0,16,0,17,0,16,0,0],"split_type":[0,0,0,0,0,0,0,0,0],"sum_hessian":[4.3363187E2,2.1088124E2,2.2275064E2,2.8420758E0,2.1990857E2,1.8629586E0,2.1804561E2,1.1726117E0,2.16873E2],"tree_param":{"num_deleted":"0","num_feature":"44","num_nodes":"9","size_leaf_vector":"1"}},{"base_weights":[7.1882308E-3,-9.985345E-2,9.5757926E-1,-7.348694E-2,9.832178E-1,-1.05831556E-1,9.952923E-2,-7.0322566E-2,5.2497208E-2],"categories":[],"categories_nodes":[],"categories_segments":[],"categories_sizes":[],"default_left":[0,0,0,0,0,0,0,0,0],"id":50,"left_children":[1,-1,3,-1,5,7,-1,-1,-1],"loss_changes":[3.7704382E2,0E0,9.522797E0,0E0,2.738037E0,1.5371113E0,0E0,0E0,0E0],"parents":[2147483647,0,0,2,2,4,4,5,5],"right_children":[2,-1,4,-1,6,8,-1,-1,-1],"split_conditions":[7.443825E-1,-9.985345E-2,5.270214E-1,-7.348694E-2,-8.301885E-2,-5.787812E-2,9.952923E-2,-7.0322566E-2,5.2497208E-2],"split_indices":[2,0,15,0,17,39,0,0,0],"split_type":[0,0,0,0,0,0,0,0,0],"sum_hessian":[3.9246713E2,1.9065819E2,2.0180894E2,2.5987382E0,1.9921022E2,2.0993059E0,1.971109E2,1.0192397E0,1.0800663E0],"tree_param":{"num_deleted":"0","num_feature":"44","num_nodes":"9","size_leaf_vector":"1"}},{"base_weights":[8.646174E-3,-8.315505E-1,9.645449E-1,-9.2527014E-1,7.4231017E-1,-5.247716E-2,9.7751683E-1,-9.757024E-1,-2.1522462E-1,1.3496447E-1,8.7653644E-2,9.8656826E-2,-1.181855E-2,-9.820522E-1,-1.3167957E-2,-5.933074E-1,4.445504E-1,3.798636E-2,-1.9692874E-2,-9.963607E-2,-6.474189E-2,-1.4314261E-2,-7.595619E-2,6.308194E-2,-1.5006028E-2],"categories":[],"categories_nodes":[],"categories_segments":[],"categories_sizes":[],"default_left":[0,0,0,0,0,0,0,0,0,0,0,0,0,0,0,0,0,0,0,0,0,0,0,0,0],"id":51,"left_children":[1,3,5,7,9,-1,11,13,15,17,-1,-1,-1,19,-1,21,23,-1,-1,-1,-1,-1,-1,-1,-1],"loss_changes":[2.8742667E2,2.8781662E1,3.7471619E0,6.243225E0,7.9959536E-1,0E0,1.766037E0,7.7093506E-1,3.5649781E0,3.3652866E-1,0E0,0E0,0E0,1.5249634E-1,0E0,5.5297565E-1,6.9194436E-1,0E0,0E0,0E0,0E0,0E0,0E0,0E0,0E0],"parents":[2147483647,0,0,1,1,2,2,3,3,4,4,6,6,7,7,8,8,9,9,13,13,15,15,16,16],"right_children":[2,4,6,8,10,-1,12,14,16,18,-1,-1,-1,20,-1,22,24,-1,-1,-1,-1,-1,-1,-1,-1],"split_conditions":[-3.4564543E-1,1.0909827E0,-2.7415356E-1,1.1277329E0,-2.5280535E-1,-5.247716E-2,4.7051927E-1,-4.4494267E-3,-2.7799058E-1,-1.5224746E-1,8.7653644E-2,9.8656826E-2,-1.181855E-2,1.0268102E0,-1.3167957E-2,-9.643906E-2,-4.912018E-2,3.798636E-2,-1.9692874E-2,-9.963607E-2,-6.474189E-2,-1.4314261E-2,-7.595619E-2,6.308194E-2,-1.5006028E-2],"split_indices":[41,30,6,26,38,0,14,39,38,8,0,0,0,37,0,14,8,0,0,0,0,0,0,0,0],"split_type":[0,0,0,0,0,0,0,0,0,0,0,0,0,0,0,0,0,0,0,0,0,0,0,0,0],"sum_hessian":[3.558787E2,1.8947119E2,1.664075E2,1.7921167E2,1.0259527E1,1.0962147E0,1.653113E2,1.6697765E2,1.2234031E1,2.2199986E0,8.039528E0,1.6405565E2,1.2556375E0,1.655685E2,1.4091485E0,7.8413205E0,4.39271E0,1.1942462E0,1.0257524E0,1.5688292E2,8.685572E0,2.61681E0,5.22451E0,3.298515E0,1.0941949E0],"tree_param":{"num_deleted":"0","num_feature":"44","num_nodes":"25","size_leaf_vector":"1"}},{"base_weights":[4.0277396E-3,-9.968185E-2,9.509465E-1,-2.4081127E-1,9.941318E-2,-7.977463E-1,6.0370833E-2,-1.0104581E-1,-1.015919E-2],"categories":[],"categories_nodes":[],"categories_segments":[],"categories_sizes":[],"default_left":[0,0,0,0,0,0,0,0,0],"id":52,"left_children":[1,-1,3,5,-1,7,-1,-1,-1],"loss_changes":[3.1044604E2,0E0,8.90213E0,3.6286645E0,0E0,5.581949E-1,0E0,0E0,0E0],"parents":[2147483647,0,0,2,2,3,3,5,5],"right_children":[2,-1,4,6,-1,8,-1,-1,-1],"split_conditions":[7.443825E-1,-9.968185E-2,-2.8681776E-1,-3.0317578E-1,9.941318E-2,-3.6262462E-1,6.0370833E-2,-1.0104581E-1,-1.015919E-2],"split_indices":[2,0,16,38,0,41,0,0,0],"split_type":[0,0,0,0,0,0,0,0,0],"sum_hessian":[3.255713E2,1.58253E2,1.6731828E2,5.690992E0,1.6162729E2,3.4627788E0,2.228213E0,2.3065279E0,1.1562511E0],"tree_param":{"num_deleted":"0","num_feature":"44","num_nodes":"9","size_leaf_vector":"1"}},{"base_weights":[8.057266E-3,-9.958545E-2,9.532294E-1,-7.0444226E-2,9.8239034E-1,9.9110186E-1,-1.5103727E-2,2.4666162E-2,9.954762E-2],"categories":[],"categories_nodes":[],"categories_segments":[],"categories_sizes":[],"default_left":[0,0,0,0,0,0,0,0,0],"id":53,"left_children":[1,-1,3,-1,5,7,-1,-1,-1],"loss_changes":[2.816606E2,0E0,8.082504E0,0E0,1.6372986E0,2.4176025E-1,0E0,0E0,0E0],"parents":[2147483647,0,0,2,2,4,4,5,5],"right_children":[2,-1,4,-1,6,8,-1,-1,-1],"split_conditions":[7.443825E-1,-9.958545E-2,5.270214E-1,-7.0444226E-2,1.3060474E0,-2.9763666E-1,-1.5103727E-2,2.4666162E-2,9.954762E-2],"split_indices":[2,0,15,0,9,16,0,0,0],"split_type":[0,0,0,0,0,0,0,0,0],"sum_hessian":[2.9483768E2,1.4295006E2,1.518876E2,2.225416E0,1.4966219E2,1.4864528E2,1.0169104E0,1.2035868E0,1.474417E2],"tree_param":{"num_deleted":"0","num_feature":"44","num_nodes":"9","size_leaf_vector":"1"}},{"base_weights":[3.4203108E-3,-9.948652E-2,9.433662E-1,-2.7866024E-1,9.921651E-2,-7.793694E-1,5.1433127E-2,-9.712866E-2,-1.3795278E-2],"categories":[],"categories_nodes":[],"categories_segments":[],"categories_sizes":[],"default_left":[0,0,0,0,0,0,0,0,0],"id":54,"left_children":[1,-1,3,5,-1,7,-1,-1,-1],"loss_changes":[2.5227956E2,0E0,8.534172E0,2.8221254E0,0E0,3.7507558E-1,0E0,0E0,0E0],"parents":[2147483647,0,0,2,2,3,3,5,5],"right_children":[2,-1,4,6,-1,8,-1,-1,-1],"split_conditions":[7.443825E-1,-9.948652E-2,-2.8681776E-1,-3.0317578E-1,9.921651E-2,-8.2972854E-2,5.1433127E-2,-9.712866E-2,-1.3795278E-2],"split_indices":[2,0,16,38,0,17,0,0,0],"split_type":[0,0,0,0,0,0,0,0,0],"sum_hessian":[2.668587E2,1.2938489E2,1.3747383E2,5.0980277E0,1.3237581E2,3.135435E0,1.9625925E0,2.0174992E0,1.1179359E0],"tree_param":{"num_deleted":"0","num_feature":"44","num_nodes":"9","size_leaf_vector":"1"}},{"base_weights":[6.224887E-3,-9.938086E-2,9.390245E-1,-6.788977E-2,9.702727E-1,-3.08526E-2,9.893169E-2],"categories":[],"categories_nodes":[],"categories_segments":[],"categories_sizes":[],"default_left":[0,0,0,0,0,0,0],"id":55,"left_children":[1,-1,3,-1,5,-1,-1],"loss_changes":[2.2782674E2,0E0,7.047127E0,0E0,3.3342743E0,0E0,0E0],"parents":[2147483647,0,0,2,2,4,4],"right_children":[2,-1,4,-1,6,-1,-1],"split_conditions":[7.443825E-1,-9.938086E-2,5.270214E-1,-6.788977E-2,-2.9971674E-1,-3.08526E-2,9.893169E-2],"split_indices":[2,0,15,0,43,0,0],"split_type":[0,0,0,0,0,0,0],"sum_hessian":[2.4223117E2,1.1687101E2,1.2536017E2,1.9825898E0,1.2337758E2,1.5873609E0,1.2179022E2],"tree_param":{"num_deleted":"0","num_feature":"44","num_nodes":"7","size_leaf_vector":"1"}},{"base_weights":[4.2841267E-3,-9.927684E-2,9.425701E-1,-6.630594E-2,9.7497743E-1,2.1069276E-1,9.9249855E-2,-4.7153067E-2,6.388585E-2],"categories":[],"categories_nodes":[],"categories_segments":[],"categories_sizes":[],"default_left":[0,0,0,0,0,0,0,0,0],"id":56,"left_children":[1,-1,3,-1,5,7,-1,-1,-1],"loss_changes":[2.0735687E2,0E0,6.588112E0,0E0,1.2951508E0,1.40744E0,0E0,0E0,0E0],"parents":[2147483647,0,0,2,2,4,4,5,5],"right_children":[2,-1,4,-1,6,8,-1,-1,-1],"split_conditions":[7.443825E-1,-9.927684E-2,5.270214E-1,-6.630594E-2,-2.8681776E-1,-2.9350662E-1,9.9249855E-2,-4.7153067E-2,6.388585E-2],"split_indices":[2,0,15,0,16,43,0,0,0],"split_type":[0,0,0,0,0,0,0,0,0],"sum_hessian":[2.1964844E2,1.0646126E2,1.1318719E2,1.854321E0,1.1133286E2,2.7869935E0,1.08545876E2,1.0356101E0,1.7513834E0],"tree_param":{"num_deleted":"0","num_feature":"44","num_nodes":"9","size_leaf_vector":"1"}},{"base_weights":[7.583408E-3,-8.7160164E-1,9.1479546E-1,-9.4882965E-1,2.1777456E-1,9.4637305E-1,-4.4504076E-2,-9.817159E-2,-3.290178E-1,7.4758194E-2,-6.443809E-2,-7.347685E-2,9.744834E-2,-7.340918E-2,2.1150471E-1,2.2480704E-2,-3.8045634E-2,4.6254437E-2,-1.9239573E-2],"categories":[],"categories_nodes":[],"categories_segments":[],"categories_sizes":[],"default_left":[0,0,0,0,0,0,0,0,0,0,0,0,0,0,0,0,0,0,0],"id":57,"left_children":[1,3,5,7,9,11,-1,-1,13,-1,-1,15,-1,-1,17,-1,-1,-1,-1],"loss_changes":[1.6051494E2,8.805237E0,4.673973E0,1.6261978E0,3.9437494E0,2.8556519E0,0E0,0E0,1.5395305E0,0E0,0E0,4.0920106E-1,0E0,0E0,4.4231743E-1,0E0,0E0,0E0,0E0],"parents":[2147483647,0,0,1,1,2,2,3,3,4,4,5,5,8,8,11,11,14,14],"right_children":[2,4,6,8,10,12,-1,-1,14,-1,-1,16,-1,-1,18,-1,-1,-1,-1],"split_conditions":[-2.748762E-1,-2.5348386E-1,4.7051927E-1,1.1277329E0,1.870401E-1,-2.8681776E-1,-4.4504076E-2,-9.817159E-2,-3.034847E-1,7.4758194E-2,-6.443809E-2,-9.643906E-2,9.744834E-2,-7.340918E-2,-1.5910067E-1,2.2480704E-2,-3.8045634E-2,4.6254437E-2,-1.9239573E-2],"split_indices":[43,16,14,26,14,16,0,0,16,0,0,14,0,0,0,0,0,0,0],"split_type":[0,0,0,0,0,0,0,0,0,0,0,0,0,0,0,0,0,0,0],"sum_hessian":[1.9924591E2,1.0120589E2,9.804002E1,9.462664E1,6.5792503E0,9.61122E1,1.927826E0,8.930439E1,5.322249E0,4.157374E0,2.4218764E0,2.5348072E0,9.3577385E1,2.8376017E0,2.4846475E0,1.421375E0,1.1134322E0,1.442737E0,1.0419105E0],"tree_param":{"num_deleted":"0","num_feature":"44","num_nodes":"19","size_leaf_vector":"1"}},{"base_weights":[9.438755E-3,-9.904733E-2,9.47569E-1,-6.339144E-2,9.8220605E-1,1.4797079E-2,9.905588E-2],"categories":[],"categories_nodes":[],"categories_segments":[],"categories_sizes":[],"default_left":[0,0,0,0,0,0,0],"id":58,"left_children":[1,-1,3,-1,5,-1,-1],"loss_changes":[1.7231604E2,0E0,5.8139877E0,0E0,5.02388E-1,0E0,0E0],"parents":[2147483647,0,0,2,2,4,4],"right_children":[2,-1,4,-1,6,-1,-1],"split_conditions":[7.443825E-1,-9.904733E-2,5.270214E-1,-6.339144E-2,-2.9763666E-1,1.4797079E-2,9.905588E-2],"split_indices":[2,0,15,0,16,0,0],"split_type":[0,0,0,0,0,0,0],"sum_hessian":[1.816959E2,8.792485E1,9.377106E1,1.6389071E0,9.213215E1,1.0988463E0,9.10333E1],"tree_param":{"num_deleted":"0","num_feature":"44","num_nodes":"7","size_leaf_vector":"1"}},{"base_weights":[4.003517E-3,-8.7020546E-1,9.083576E-1,-9.3982595E-1,5.7691765E-1,-5.7531577E-2,9.3962204E-1,-9.7868836E-1,-2.665027E-1,6.840206E-2,1.0017469E-2,9.637364E-1,-4.028632E-2,-9.8565675E-2,-2.6493916E-2,-5.3783447E-1,3.7141796E-2,1.32981045E-2,9.768147E-2,-1.4991446E-2,-6.4513795E-2],"categories":[],"categories_nodes":[],"categories_segments":[],"categories_sizes":[],"default_left":[0,0,0,0,0,0,0,0,0,0,0,0,0,0,0,0,0,0,0,0,0],"id":59,"left_children":[1,3,5,7,9,-1,11,13,15,-1,-1,17,-1,-1,-1,19,-1,-1,-1,-1,-1],"loss_changes":[1.3206137E2,9.099686E0,4.3490067E0,1.8696823E0,1.6219115E-1,0E0,3.0036087E0,1.1986542E-1,1.2066324E0,0E0,0E0,7.355728E-1,0E0,0E0,0E0,9.016895E-2,0E0,0E0,0E0,0E0,0E0],"parents":[2147483647,0,0,1,1,2,2,3,3,4,4,6,6,7,7,8,8,11,11,15,15],"right_children":[2,4,6,8,10,-1,12,14,16,-1,-1,18,-1,-1,-1,20,-1,-1,-1,-1,-1],"split_conditions":[-2.748762E-1,-3.3998573E-1,5.270214E-1,1.1277329E0,-9.643906E-2,-5.7531577E-2,2.5238147E-1,-3.1163774E-2,-2.7799058E-1,6.840206E-2,1.0017469E-2,-4.267768E-1,-4.028632E-2,-9.8565675E-2,-2.6493916E-2,-9.643906E-2,3.7141796E-2,1.32981045E-2,9.768147E-2,-1.4991446E-2,-6.4513795E-2],"split_indices":[43,41,15,26,14,0,0,39,38,0,0,40,0,0,0,14,0,0,0,0,0],"split_type":[0,0,0,0,0,0,0,0,0,0,0,0,0,0,0,0,0,0,0,0,0],"sum_hessian":[1.6504077E2,8.393823E1,8.110253E1,8.041982E1,3.5184097E0,1.3146216E0,7.978791E1,7.560272E1,4.8171005E0,2.517958E0,1.0004518E0,7.865716E1,1.130753E0,7.449447E1,1.1082511E0,3.4896953E0,1.3274049E0,1.3921692E0,7.7264984E1,1.2755342E0,2.2141612E0],"tree_param":{"num_deleted":"0","num_feature":"44","num_nodes":"21","size_leaf_vector":"1"}},{"base_weights":[1.8096425E-3,-9.878542E-2,9.2610466E-1,-5.098437E-1,9.7331274E-1,5.0400215E-4,-7.89793E-2,1.4754288E-2,9.8229125E-2],"categories":[],"categories_nodes":[],"categories_segments":[],"categories_sizes":[],"default_left":[0,0,0,0,0,0,0,0,0],"id":60,"left_children":[1,-1,3,5,7,-1,-1,-1,-1],"loss_changes":[1.3959077E2,0E0,5.8451157E0,4.605868E-1,4.2401886E-1,0E0,0E0,0E0,0E0],"parents":[2147483647,0,0,2,2,3,3,4,4],"right_children":[2,-1,4,6,8,-1,-1,-1,-1],"split_conditions":[7.443825E-1,-9.878542E-2,-8.301885E-2,-1.7796387E-1,-2.9617465E-1,5.0400215E-4,-7.89793E-2,1.4754288E-2,9.8229125E-2],"split_indices":[2,0,17,9,16,0,0,0,0],"split_type":[0,0,0,0,0,0,0,0,0],"sum_hessian":[1.5060123E2,7.26956E1,7.790562E1,2.1677675E0,7.5737854E1,1.1093831E0,1.0583845E0,1.0021378E0,7.473572E1],"tree_param":{"num_deleted":"0","num_feature":"44","num_nodes":"9","size_leaf_vector":"1"}},{"base_weights":[4.6582003E-3,-9.863204E-2,9.2657924E-1,-6.021283E-2,9.6527547E-1,3.4984753E-3,9.787984E-2],"categories":[],"categories_nodes":[],"categories_segments":[],"categories_sizes":[],"default_left":[0,0,0,0,0,0,0],"id":61,"left_children":[1,-1,3,-1,5,-1,-1],"loss_changes":[1.26639854E2,0E0,4.8289986E0,0E0,8.516388E-1,0E0,0E0],"parents":[2147483647,0,0,2,2,4,4],"right_children":[2,-1,4,-1,6,-1,-1],"split_conditions":[7.443825E-1,-9.863204E-2,-3.0874795E-1,-6.021283E-2,-8.301885E-2,3.4984753E-3,9.787984E-2],"split_indices":[2,0,16,0,17,0,0],"split_type":[0,0,0,0,0,0,0],"sum_hessian":[1.3661536E2,6.5808044E1,7.080732E1,1.3886304E0,6.9418686E1,1.0460223E0,6.8372665E1],"tree_param":{"num_deleted":"0","num_feature":"44","num_nodes":"7","size_leaf_vector":"1"}},{"base_weights":[-2.8784247E-3,-9.8467015E-2,9.024521E-1,-3.1246856E-1,9.79779E-2,-7.748658E-1,3.3251617E-2,-2.0735763E-2,-9.551623E-2],"categories":[],"categories_nodes":[],"categories_segments":[],"categories_sizes":[],"default_left":[0,0,0,0,0,0,0,0,0],"id":62,"left_children":[1,-1,3,5,-1,7,-1,-1,-1],"loss_changes":[1.123283E2,0E0,6.483059E0,1.6571681E0,0E0,1.1231911E-1,0E0,0E0,0E0],"parents":[2147483647,0,0,2,2,3,3,5,5],"right_children":[2,-1,4,6,-1,8,-1,-1,-1],"split_conditions":[7.443825E-1,-9.8467015E-2,-2.8681776E-1,-2.9350662E-1,9.79779E-2,-2.3886193E-2,3.3251617E-2,-2.0735763E-2,-9.551623E-2],"split_indices":[2,0,16,43,0,9,0,0,0],"split_type":[0,0,0,0,0,0,0,0,0],"sum_hessian":[1.24375694E2,5.962612E1,6.474957E1,3.6925864E0,6.1056988E1,2.0334275E0,1.6591591E0,1.0086508E0,1.0247766E0],"tree_param":{"num_deleted":"0","num_feature":"44","num_nodes":"9","size_leaf_vector":"1"}},{"base_weights":[-3.0922664E-3,-8.4909624E-1,8.9582974E-1,-9.3210435E-1,3.7578884E-1,9.529225E-1,-5.0599504E-2,-9.7451076E-2,-2.828723E-1,-1.04742525E-2,5.47579E-2,3.287513E-2,9.646434E-2,-6.1913442E-2,1.7430592E-2],"categories":[],"categories_nodes":[],"categories_segments":[],"categories_sizes":[],"default_left":[0,0,0,0,0,0,0,0,0,0,0,0,0,0,0],"id":63,"left_children":[1,3,5,7,9,11,-1,-1,13,-1,-1,-1,-1,-1,-1],"loss_changes":[8.751919E1,6.3780403E0,4.947899E0,1.260849E0,4.267916E-1,7.764816E-2,0E0,0E0,8.5056704E-1,0E0,0E0,0E0,0E0,0E0,0E0],"parents":[2147483647,0,0,1,1,2,2,3,3,4,4,5,5,8,8],"right_children":[2,4,6,8,10,12,-1,-1,14,-1,-1,-1,-1,-1,-1],"split_conditions":[-2.5348386E-1,-3.4564543E-1,2.0397182E-1,1.1277329E0,-2.926658E-1,-3.0317578E-1,-5.0599504E-2,-9.7451076E-2,-3.023151E-1,-1.04742525E-2,5.47579E-2,3.287513E-2,9.646434E-2,-6.1913442E-2,1.7430592E-2],"split_indices":[16,41,0,26,16,38,0,0,16,0,0,0,0,0,0],"split_type":[0,0,0,0,0,0,0,0,0,0,0,0,0,0,0],"sum_hessian":[1.1308218E2,5.8284355E1,5.479782E1,5.4809074E1,3.4752798E0,5.296108E1,1.836743E0,5.0978268E1,3.8308065E0,1.018005E0,2.4572747E0,1.5116166E0,5.1449463E1,2.0031815E0,1.827625E0],"tree_param":{"num_deleted":"0","num_feature":"44","num_nodes":"15","size_leaf_vector":"1"}},{"base_weights":[3.945474E-3,-7.912875E-1,9.293364E-1,-8.889674E-1,6.0887545E-1,-3.1092432E-3,9.5012367E-1,-9.593446E-1,-1.9502163E-1,1.8071106E-2,6.84374E-2,9.611345E-2,2.2233894E-2,-9.767579E-2,-4.3851545E-1,3.126666E-1,-6.801031E-2,-5.3608067E-2,-1.2782364E-2,3.679931E-3,4.304595E-2],"categories":[],"categories_nodes":[],"categories_segments":[],"categories_sizes":[],"default_left":[0,0,0,0,0,0,0,0,0,0,0,0,0,0,0,0,0,0,0,0,0],"id":64,"left_children":[1,3,5,7,9,-1,11,13,15,-1,-1,-1,-1,-1,17,19,-1,-1,-1,-1,-1],"loss_changes":[7.761436E1,8.299561E0,1.0026855E0,2.422474E0,1.5094638E-2,0E0,1.6888428E-1,9.346008E-3,1.7334048E0,0E0,0E0,0E0,0E0,0E0,3.3811092E-2,1.0446745E-1,0E0,0E0,0E0,0E0,0E0],"parents":[2147483647,0,0,1,1,2,2,3,3,4,4,6,6,7,7,8,8,14,14,15,15],"right_children":[2,4,6,8,10,-1,12,14,16,-1,-1,-1,-1,-1,18,20,-1,-1,-1,-1,-1],"split_conditions":[-3.4564543E-1,1.0909827E0,-3.157684E-1,1.0268102E0,-2.2762012E-1,-3.1092432E-3,1.07152484E-1,1.1277329E0,1.870401E-1,1.8071106E-2,6.84374E-2,9.611345E-2,2.2233894E-2,-9.767579E-2,-3.157684E-1,-2.7799058E-1,-6.801031E-2,-5.3608067E-2,-1.2782364E-2,3.679931E-3,4.304595E-2],"split_indices":[41,30,38,37,38,0,0,26,14,0,0,0,0,0,38,38,0,0,0,0,0],"split_type":[0,0,0,0,0,0,0,0,0,0,0,0,0,0,0,0,0,0,0,0,0],"sum_hessian":[1.0346914E2,5.572601E1,4.774313E1,5.2433197E1,3.292812E0,1.000945E0,4.6742184E1,4.725803E1,5.1751685E0,1.0022814E0,2.2905307E0,4.5729694E1,1.0124875E0,4.4882057E1,2.3759727E0,2.7023318E0,2.4728367E0,1.2560872E0,1.1198857E0,1.2013094E0,1.5010222E0],"tree_param":{"num_deleted":"0","num_feature":"44","num_nodes":"21","size_leaf_vector":"1"}},{"base_weights":[-3.509919E-3,-9.792595E-2,8.852702E-1,-2.936404E-1,9.713515E-2,-6.7726E-2,3.5064355E-2],"categories":[],"categories_nodes":[],"categories_segments":[],"categories_sizes":[],"default_left":[0,0,0,0,0,0,0],"id":65,"left_children":[1,-1,3,5,-1,-1,-1],"loss_changes":[8.408703E1,0E0,5.434826E0,1.2807229E0,0E0,0E0,0E0],"parents":[2147483647,0,0,2,2,3,3],"right_children":[2,-1,4,6,-1,-1,-1],"split_conditions":[7.443825E-1,-9.792595E-2,-2.8681776E-1,-3.0317578E-1,9.713515E-2,-6.7726E-2,3.5064355E-2],"split_indices":[2,0,16,38,0,0,0],"split_type":[0,0,0,0,0,0,0],"sum_hessian":[9.49612E1,4.5217377E1,4.974382E1,3.2209349E0,4.6522884E1,1.9867824E0,1.2341524E0],"tree_param":{"num_deleted":"0","num_feature":"44","num_nodes":"7","size_leaf_vector":"1"}},{"base_weights":[6.5540127E-3,-7.7565116E-1,9.229343E-1,-8.750493E-1,5.7038713E-2,9.447064E-2,4.9156146E-3,-9.503089E-1,-1.7435552E-1,-9.705136E-2,-4.0020233E-1,2.7105886E-1,-6.2002797E-2,-5.0471842E-2,-9.565222E-3,7.4202404E-4,3.9702818E-2],"categories":[],"categories_nodes":[],"categories_segments":[],"categories_sizes":[],"default_left":[0,0,0,0,0,0,0,0,0,0,0,0,0,0,0,0,0],"id":66,"left_children":[1,3,5,7,-1,-1,-1,9,11,-1,13,15,-1,-1,-1,-1,-1],"loss_changes":[6.3249916E1,6.8689632E0,7.265358E-1,2.1931076E0,0E0,0E0,0E0,5.804062E-2,1.2723832E0,0E0,5.1184177E-2,1.1256468E-1,0E0,0E0,0E0,0E0,0E0],"parents":[2147483647,0,0,1,1,2,2,3,3,7,7,8,8,10,10,11,11],"right_children":[2,4,6,8,-1,-1,-1,10,12,-1,14,16,-1,-1,-1,-1,-1],"split_conditions":[-3.4564543E-1,1.0909827E0,1.0010284E-2,1.0268102E0,5.7038713E-2,9.447064E-2,4.9156146E-3,1.1277329E0,-1.3871674E-2,-9.705136E-2,-3.157684E-1,-2.7799058E-1,-6.2002797E-2,-5.0471842E-2,-9.565222E-3,7.4202404E-4,3.9702818E-2],"split_indices":[41,30,10,37,0,0,0,26,0,0,38,38,0,0,0,0,0],"split_type":[0,0,0,0,0,0,0,0,0,0,0,0,0,0,0,0,0],"sum_hessian":[8.624088E1,4.6609474E1,3.9631413E1,4.3730133E1,2.8793418E0,3.8588715E1,1.0426981E0,3.916706E1,4.5630713E0,3.7042324E1,2.1247382E0,2.478152E0,2.0849195E0,1.0925395E0,1.0321985E0,1.143613E0,1.334539E0],"tree_param":{"num_deleted":"0","num_feature":"44","num_nodes":"17","size_leaf_vector":"1"}},{"base_weights":[2.46208E-3,-9.748321E-2,8.8772017E-1,-5.7196964E-2,9.444345E-1,9.704093E-2,-4.682955E-3],"categories":[],"categories_nodes":[],"categories_segments":[],"categories_sizes":[],"default_left":[0,0,0,0,0,0,0],"id":67,"left_children":[1,-1,3,-1,5,-1,-1],"loss_changes":[7.0215744E1,0E0,4.0654716E0,0E0,1.1105843E0,0E0,0E0],"parents":[2147483647,0,0,2,2,4,4],"right_children":[2,-1,4,-1,6,-1,-1],"split_conditions":[7.443825E-1,-9.748321E-2,5.270214E-1,-5.7196964E-2,1.1357511E0,9.704093E-2,-4.682955E-3],"split_indices":[2,0,15,0,9,0,0],"split_type":[0,0,0,0,0,0,0],"sum_hessian":[7.915924E1,3.757574E1,4.1583496E1,1.2154576E0,4.036804E1,3.935776E1,1.0102788E0],"tree_param":{"num_deleted":"0","num_feature":"44","num_nodes":"7","size_leaf_vector":"1"}},{"base_weights":[-1.7437773E-3,-9.722157E-2,8.7170434E-1,-2.7275017E-1,9.720859E-2,-6.8613E-2,3.218133E-2],"categories":[],"categories_nodes":[],"categories_segments":[],"categories_sizes":[],"default_left":[0,0,0,0,0,0,0],"id":68,"left_children":[1,-1,3,5,-1,-1,-1],"loss_changes":[6.286193E1,0E0,4.7492085E0,1.1863222E0,0E0,0E0,0E0],"parents":[2147483647,0,0,2,2,3,3],"right_children":[2,-1,4,6,-1,-1,-1],"split_conditions":[7.443825E-1,-9.722157E-2,-2.8681776E-1,-2.9350662E-1,9.720859E-2,-6.8613E-2,3.218133E-2],"split_indices":[2,0,16,43,0,0,0],"split_type":[0,0,0,0,0,0,0],"sum_hessian":[7.215985E1,3.41279E1,3.803195E1,2.9283683E0,3.5103584E1,1.6365348E0,1.2918334E0],"tree_param":{"num_deleted":"0","num_feature":"44","num_nodes":"7","size_leaf_vector":"1"}},{"base_weights":[-7.9825325E-3,-9.6945226E-2,8.576051E-1,-4.57115E-2,9.3187076E-1,1.9351376E-2,9.497457E-2],"categories":[],"categories_nodes":[],"categories_segments":[],"categories_sizes":[],"default_left":[0,0,0,0,0,0,0],"id":69,"left_children":[1,-1,3,-1,5,-1,-1],"loss_changes":[5.637312E1,0E0,3.9068546E0,0E0,2.6592064E-1,0E0,0E0],"parents":[2147483647,0,0,2,2,4,4],"right_children":[2,-1,4,-1,6,-1,-1],"split_conditions":[7.443825E-1,-9.6945226E-2,-8.301885E-2,-4.57115E-2,-7.123529E-2,1.9351376E-2,9.497457E-2],"split_indices":[2,0,17,0,39,0,0],"split_type":[0,0,0,0,0,0,0],"sum_hessian":[6.5737915E1,3.108718E1,3.4650734E1,1.577056E0,3.3073677E1,1.0612856E0,3.201239E1],"tree_param":{"num_deleted":"0","num_feature":"44","num_nodes":"7","size_leaf_vector":"1"}},{"base_weights":[-9.966495E-3,-9.6623324E-2,8.3521205E-1,-2.9483306E-1,9.4993405E-2,-6.295641E-2,3.134462E-2],"categories":[],"categories_nodes":[],"categories_segments":[],"categories_sizes":[],"default_left":[0,0,0,0,0,0,0],"id":70,"left_children":[1,-1,3,5,-1,-1,-1],"loss_changes":[5.019479E1,0E0,4.554865E0,9.7148895E-1,0E0,0E0,0E0],"parents":[2147483647,0,0,2,2,3,3],"right_children":[2,-1,4,6,-1,-1,-1],"split_conditions":[7.443825E-1,-9.6623324E-2,-2.8681776E-1,-3.0317578E-1,9.4993405E-2,-6.295641E-2,3.134462E-2],"split_indices":[2,0,16,38,0,0,0],"split_type":[0,0,0,0,0,0,0],"sum_hessian":[6.0107147E1,2.813309E1,3.197406E1,2.8021457E0,2.9171915E1,1.7849246E0,1.017221E0],"tree_param":{"num_deleted":"0","num_feature":"44","num_nodes":"7","size_leaf_vector":"1"}},{"base_weights":[-8.696484E-3,-8.24156E-1,8.414462E-1,-9.240682E-1,5.9168845E-2,1.181142E-1,9.137397E-1,-9.552938E-2,-2.1774748E-2,-2.858462E-2,4.0039312E-2,3.6393985E-2,-2.02547E-2,9.3519256E-2,2.2078084E-2],"categories":[],"categories_nodes":[],"categories_segments":[],"categories_sizes":[],"default_left":[0,0,0,0,0,0,0,0,0,0,0,0,0,0,0],"id":71,"left_children":[1,3,5,7,9,11,13,-1,-1,-1,-1,-1,-1,-1,-1],"loss_changes":[3.9438324E1,2.6168175E0,1.3487778E0,3.6854172E-1,5.7239187E-1,3.6376923E-1,1.6781044E-1,0E0,0E0,0E0,0E0,0E0,0E0,0E0,0E0],"parents":[2147483647,0,0,1,1,2,2,3,3,4,4,5,5,6,6],"right_children":[2,4,6,8,10,12,14,-1,-1,-1,-1,-1,-1,-1,-1],"split_conditions":[-2.748762E-1,1.1277329E0,-3.3713952E-1,-2.6539797E-1,-2.905832E-1,3.287927E-2,5.874282E-2,-9.552938E-2,-2.1774748E-2,-2.858462E-2,4.0039312E-2,3.6393985E-2,-2.02547E-2,9.3519256E-2,2.2078084E-2],"split_indices":[43,26,40,38,38,9,0,0,0,0,0,0,0,0,0],"split_type":[0,0,0,0,0,0,0,0,0,0,0,0,0,0,0],"sum_hessian":[5.4888138E1,2.8031145E1,2.6856993E1,2.5141306E1,2.889839E0,2.6796436E0,2.417735E1,2.3739326E1,1.4019792E0,1.5176356E0,1.3722034E0,1.4404203E0,1.2392235E0,2.3112268E1,1.0650803E0],"tree_param":{"num_deleted":"0","num_feature":"44","num_nodes":"15","size_leaf_vector":"1"}},{"base_weights":[-1.0123495E-2,-9.5971294E-2,8.1376815E-1,-2.2582701E-1,9.2996165E-2,-6.109925E-2,3.707356E-2],"categories":[],"categories_nodes":[],"categories_segments":[],"categories_sizes":[],"default_left":[0,0,0,0,0,0,0],"id":72,"left_children":[1,-1,3,5,-1,-1,-1],"loss_changes":[4.132383E1,0E0,3.6270676E0,1.0648474E0,0E0,0E0,0E0],"parents":[2147483647,0,0,2,2,3,3],"right_children":[2,-1,4,6,-1,-1,-1],"split_conditions":[7.443825E-1,-9.5971294E-2,-3.0317578E-1,-3.569649E-1,9.2996165E-2,-6.109925E-2,3.707356E-2],"split_indices":[2,0,38,41,0,0,0],"split_type":[0,0,0,0,0,0,0],"sum_hessian":[5.0821297E1,2.353305E1,2.7288246E1,2.6484802E0,2.4639767E1,1.5946923E0,1.0537877E0],"tree_param":{"num_deleted":"0","num_feature":"44","num_nodes":"7","size_leaf_vector":"1"}},{"base_weights":[-8.464994E-3,-9.5571816E-2,8.126684E-1,-2.9340428E-1,9.431376E-2,-6.1096497E-2,2.0608868E-2],"categories":[],"categories_nodes":[],"categories_segments":[],"categories_sizes":[],"default_left":[0,0,0,0,0,0,0],"id":73,"left_children":[1,-1,3,5,-1,-1,-1],"loss_changes":[3.7471794E1,0E0,4.0014877E0,6.788744E-1,0E0,0E0,0E0],"parents":[2147483647,0,0,2,2,3,3],"right_children":[2,-1,4,6,-1,-1,-1],"split_conditions":[7.443825E-1,-9.5571816E-2,-2.8681776E-1,-2.9350662E-1,9.431376E-2,-6.1096497E-2,2.0608868E-2],"split_indices":[2,0,16,43,0,0,0],"split_type":[0,0,0,0,0,0,0],"sum_hessian":[4.6176792E1,2.1365646E1,2.4811146E1,2.4860914E0,2.2325054E1,1.3834014E0,1.10269E0],"tree_param":{"num_deleted":"0","num_feature":"44","num_nodes":"7","size_leaf_vector":"1"}},{"base_weights":[-9.207152E-3,-9.5135644E-2,7.923493E-1,-2.536688E-1,9.237473E-2,1.8153207E-2,-6.400992E-2],"categories":[],"categories_nodes":[],"categories_segments":[],"categories_sizes":[],"default_left":[0,0,0,0,0,0,0],"id":74,"left_children":[1,-1,3,5,-1,-1,-1],"loss_changes":[3.3513546E1,0E0,3.530837E0,6.9827956E-1,0E0,0E0,0E0],"parents":[2147483647,0,0,2,2,3,3],"right_children":[2,-1,4,6,-1,-1,-1],"split_conditions":[7.443825E-1,-9.5135644E-2,-2.8681776E-1,3.287927E-2,9.237473E-2,1.8153207E-2,-6.400992E-2],"split_indices":[2,0,16,9,0,0,0],"split_type":[0,0,0,0,0,0,0],"sum_hessian":[4.2379707E1,1.9395432E1,2.2984274E1,2.461166E0,2.0523108E1,1.4069177E0,1.0542482E0],"tree_param":{"num_deleted":"0","num_feature":"44","num_nodes":"7","size_leaf_vector":"1"}},{"base_weights":[-3.2829645E-3,-9.468579E-2,7.9656774E-1,-2.8265536E-2,9.105751E-1,3.3453565E-2,9.398181E-2],"categories":[],"categories_nodes":[],"categories_segments":[],"categories_sizes":[],"default_left":[0,0,0,0,0,0,0],"id":75,"left_children":[1,-1,3,-1,5,-1,-1],"loss_changes":[3.0755932E1,0E0,2.971344E0,0E0,2.5651932E-2,0E0,0E0],"parents":[2147483647,0,0,2,2,4,4],"right_children":[2,-1,4,-1,6,-1,-1],"split_conditions":[7.443825E-1,-9.468579E-2,-2.9350662E-1,-2.8265536E-2,-8.2131855E-2,3.3453565E-2,9.398181E-2],"split_indices":[2,0,43,0,17,0,0],"split_type":[0,0,0,0,0,0,0],"sum_hessian":[3.8752136E1,1.7694426E1,2.105771E1,1.8706244E0,1.9187086E1,1.5279917E0,1.7659094E1],"tree_param":{"num_deleted":"0","num_feature":"44","num_nodes":"7","size_leaf_vector":"1"}},{"base_weights":[-1.5897328E-2,-7.5492454E-1,8.339547E-1,-8.541734E-1,2.1316104E-2,9.0266995E-2,-8.079329E-3,-9.203704E-2,-1.7573072E-2],"categories":[],"categories_nodes":[],"categories_segments":[],"categories_sizes":[],"default_left":[0,0,0,0,0,0,0,0,0],"id":76,"left_children":[1,3,5,7,-1,-1,-1,-1,-1],"loss_changes":[2.3722782E1,2.122118E0,1.1777859E0,6.6973114E-1,0E0,0E0,0E0,0E0,0E0],"parents":[2147483647,0,0,1,1,2,2,3,3],"right_children":[2,4,6,8,-1,-1,-1,-1,-1],"split_conditions":[-2.5055984E-1,-3.4564543E-1,1.870401E-1,1.0268102E0,2.1316104E-2,9.0266995E-2,-8.079329E-3,-9.203704E-2,-1.7573072E-2],"split_indices":[16,41,14,37,0,0,0,0,0],"split_type":[0,0,0,0,0,0,0,0,0],"sum_hessian":[3.576889E1,1.9191637E1,1.6577255E1,1.7513777E1,1.6778591E0,1.5431272E1,1.1459833E0,1.56319475E1,1.8818299E0],"tree_param":{"num_deleted":"0","num_feature":"44","num_nodes":"9","size_leaf_vector":"1"}},{"base_weights":[-5.504787E-4,-9.371432E-2,7.766656E-1,-5.6786645E-2,8.872608E-1,3.6348463E-3,9.412139E-2],"categories":[],"categories_nodes":[],"categories_segments":[],"categories_sizes":[],"default_left":[0,0,0,0,0,0,0],"id":77,"left_children":[1,-1,3,-1,5,-1,-1],"loss_changes":[2.5416891E1,0E0,3.3413372E0,0E0,7.9317E-1,0E0,0E0],"parents":[2147483647,0,0,2,2,4,4],"right_children":[2,-1,4,-1,6,-1,-1],"split_conditions":[7.443825E-1,-9.371432E-2,5.270214E-1,-5.6786645E-2,-2.9350662E-1,3.6348463E-3,9.412139E-2],"split_indices":[2,0,15,0,43,0,0],"split_type":[0,0,0,0,0,0,0],"sum_hessian":[3.2916553E1,1.4834414E1,1.808214E1,1.0600626E0,1.7022076E1,1.1147462E0,1.59073305E1],"tree_param":{"num_deleted":"0","num_feature":"44","num_nodes":"7","size_leaf_vector":"1"}},{"base_weights":[-1.1671773E-2,-9.313284E-2,7.3460877E-1,-2.0420524E-1,8.900312E-2,2.5845034E-2,-6.035475E-2],"categories":[],"categories_nodes":[],"categories_segments":[],"categories_sizes":[],"default_left":[0,0,0,0,0,0,0],"id":78,"left_children":[1,-1,3,5,-1,-1,-1],"loss_changes":[2.2232002E1,0E0,2.7922497E0,7.75766E-1,0E0,0E0,0E0],"parents":[2147483647,0,0,2,2,3,3],"right_children":[2,-1,4,6,-1,-1,-1],"split_conditions":[7.443825E-1,-9.313284E-2,-2.8681776E-1,3.287927E-2,8.900312E-2,2.5845034E-2,-6.035475E-2],"split_indices":[2,0,16,9,0,0,0],"split_type":[0,0,0,0,0,0,0],"sum_hessian":[3.0396118E1,1.3505301E1,1.6890818E1,2.3545458E0,1.4536271E1,1.2542509E0,1.100295E0],"tree_param":{"num_deleted":"0","num_feature":"44","num_nodes":"7","size_leaf_vector":"1"}},{"base_weights":[7.0311967E-3,-9.24845E-2,7.600238E-1,-1.10228015E-2,8.8331306E-1,2.490289E-2,9.246572E-2],"categories":[],"categories_nodes":[],"categories_segments":[],"categories_sizes":[],"default_left":[0,0,0,0,0,0,0],"id":79,"left_children":[1,-1,3,-1,5,-1,-1],"loss_changes":[2.0819082E1,0E0,1.8574734E0,0E0,1.4945698E-1,0E0,0E0],"parents":[2147483647,0,0,2,2,4,4],"right_children":[2,-1,4,-1,6,-1,-1],"split_conditions":[7.443825E-1,-9.24845E-2,-3.0317578E-1,-1.10228015E-2,-8.2131855E-2,2.490289E-2,9.246572E-2],"split_indices":[2,0,38,0,17,0,0],"split_type":[0,0,0,0,0,0,0],"sum_hessian":[2.7667946E1,1.2263213E1,1.5404733E1,1.9247319E0,1.34800005E1,1.2546724E0,1.22253275E1],"tree_param":{"num_deleted":"0","num_feature":"44","num_nodes":"7","size_leaf_vector":"1"}},{"base_weights":[5.2912167E-4,-9.1833204E-2,7.3731166E-1,-2.2365652E-1,9.188056E-2,1.544753E-2,-5.22537E-2],"categories":[],"categories_nodes":[],"categories_segments":[],"categories_sizes":[],"default_left":[0,0,0,0,0,0,0],"id":80,"left_children":[1,-1,3,5,-1,-1,-1],"loss_changes":[1.8577354E1,0E0,2.8615532E0,4.450286E-1,0E0,0E0,0E0],"parents":[2147483647,0,0,2,2,3,3],"right_children":[2,-1,4,6,-1,-1,-1],"split_conditions":[7.443825E-1,-9.1833204E-2,-2.8681776E-1,2.4769917E-2,9.188056E-2,1.544753E-2,-5.22537E-2],"split_indices":[2,0,16,9,0,0,0],"split_type":[0,0,0,0,0,0,0],"sum_hessian":[2.5440521E1,1.1211701E1,1.422882E1,2.223515E0,1.2005305E1,1.1949123E0,1.0286027E0],"tree_param":{"num_deleted":"0","num_feature":"44","num_nodes":"7","size_leaf_vector":"1"}},{"base_weights":[-1.903723E-2,-9.1100864E-2,6.7423177E-1,-2.9551277E-1,8.6084944E-1,-5.767032E-2,1.2613803E-2,2.0229416E-2,9.110645E-2],"categories":[],"categories_nodes":[],"categories_segments":[],"categories_sizes":[],"default_left":[0,0,0,0,0,0,0,0,0],"id":81,"left_children":[1,-1,3,5,7,-1,-1,-1,-1],"loss_changes":[1.5866519E1,0E0,2.8699794E0,4.375575E-1,2.2496796E-1,0E0,0E0,0E0,0E0],"parents":[2147483647,0,0,2,2,3,3,4,4],"right_children":[2,-1,4,6,8,-1,-1,-1,-1],"split_conditions":[7.443825E-1,-9.1100864E-2,-3.0317578E-1,-3.6262462E-1,-8.2131855E-2,-5.767032E-2,1.2613803E-2,2.0229416E-2,9.110645E-2],"split_indices":[2,0,38,41,17,0,0,0,0],"split_type":[0,0,0,0,0,0,0,0,0],"sum_hessian":[2.3665066E1,1.0212027E1,1.3453039E1,2.0769267E0,1.1376113E1,1.0253887E0,1.051538E0,1.1622405E0,1.0213872E1],"tree_param":{"num_deleted":"0","num_feature":"44","num_nodes":"9","size_leaf_vector":"1"}},{"base_weights":[9.416022E-3,-9.0354875E-2,7.338876E-1,-6.8280273E-3,8.536587E-2],"categories":[],"categories_nodes":[],"categories_segments":[],"categories_sizes":[],"default_left":[0,0,0,0,0],"id":82,"left_children":[1,-1,3,-1,-1],"loss_changes":[1.5463423E1,0E0,1.3099823E0,0E0,0E0],"parents":[2147483647,0,0,2,2],"right_children":[2,-1,4,-1,-1],"split_conditions":[7.443825E-1,-9.0354875E-2,-3.6262462E-1,-6.8280273E-3,8.536587E-2],"split_indices":[2,0,41,0,0],"split_type":[0,0,0,0,0],"sum_hessian":[2.1376682E1,9.348591E0,1.2028091E1,1.6184453E0,1.0409646E1],"tree_param":{"num_deleted":"0","num_feature":"44","num_nodes":"5","size_leaf_vector":"1"}},{"base_weights":[-1.8135944E-2,-8.95203E-2,6.388882E-1,-2.6290154E-1,8.575026E-2,1.6287377E-2,-5.927437E-2],"categories":[],"categories_nodes":[],"categories_segments":[],"categories_sizes":[],"default_left":[0,0,0,0,0,0,0],"id":83,"left_children":[1,-1,3,5,-1,-1,-1],"loss_changes":[1.2830661E1,0E0,2.7381916E0,5.532933E-1,0E0,0E0,0E0],"parents":[2147483647,0,0,2,2,3,3],"right_children":[2,-1,4,6,-1,-1,-1],"split_conditions":[7.443825E-1,-8.95203E-2,-2.8681776E-1,3.287927E-2,8.575026E-2,1.6287377E-2,-5.927437E-2],"split_indices":[2,0,16,9,0,0,0],"split_type":[0,0,0,0,0,0,0],"sum_hessian":[2.0273123E1,8.527363E0,1.174576E1,2.2523167E0,9.4934435E0,1.2041508E0,1.048166E0],"tree_param":{"num_deleted":"0","num_feature":"44","num_nodes":"7","size_leaf_vector":"1"}},{"base_weights":[-2.3557225E-2,-8.864383E-2,6.1251974E-1,-3.2523784E-1,8.3721423E-1,-5.308149E-2,4.4776835E-3,1.9431172E-2,8.8808365E-2],"categories":[],"categories_nodes":[],"categories_segments":[],"categories_sizes":[],"default_left":[0,0,0,0,0,0,0,0,0],"id":84,"left_children":[1,-1,3,5,7,-1,-1,-1,-1],"loss_changes":[1.138922E1,0E0,2.7938776E0,2.5450727E-1,1.5230846E-1,0E0,0E0,0E0,0E0],"parents":[2147483647,0,0,2,2,3,3,4,4],"right_children":[2,-1,4,6,8,-1,-1,-1,-1],"split_conditions":[7.443825E-1,-8.864383E-2,-3.0317578E-1,-3.6262462E-1,-2.7512166E-1,-5.308149E-2,4.4776835E-3,1.9431172E-2,8.8808365E-2],"split_indices":[2,0,38,41,16,0,0,0,0],"split_type":[0,0,0,0,0,0,0,0,0],"sum_hessian":[1.8761475E1,7.794335E0,1.0967139E1,2.0333848E0,8.933755E0,1.0277805E0,1.0056043E0,1.0084525E0,7.925302E0],"tree_param":{"num_deleted":"0","num_feature":"44","num_nodes":"9","size_leaf_vector":"1"}},{"base_weights":[-2.9254278E-2,-8.770596E-2,5.739256E-1,-5.9732098E-2,7.545525E-1,8.798327E-2,-1.8678825E-2],"categories":[],"categories_nodes":[],"categories_segments":[],"categories_sizes":[],"default_left":[0,0,0,0,0,0,0],"id":85,"left_children":[1,-1,3,-1,5,-1,-1],"loss_changes":[1.001197E1,0E0,2.8770516E0,0E0,1.3882756E0,0E0,0E0],"parents":[2147483647,0,0,2,2,4,4],"right_children":[2,-1,4,-1,6,-1,-1],"split_conditions":[7.443825E-1,-8.770596E-2,5.270214E-1,-5.9732098E-2,8.275957E-1,8.798327E-2,-1.8678825E-2],"split_indices":[2,0,15,0,9,0,0],"split_type":[0,0,0,0,0,0,0],"sum_hessian":[1.7594038E1,7.125152E0,1.0468885E1,1.0905368E0,9.378348E0,8.334478E0,1.0438694E0],"tree_param":{"num_deleted":"0","num_feature":"44","num_nodes":"7","size_leaf_vector":"1"}},{"base_weights":[-2.7792202E-2,-8.675156E-2,5.779932E-1,-2.8541142E-1,8.218052E-2,3.675901E-3,-4.691275E-2],"categories":[],"categories_nodes":[],"categories_segments":[],"categories_sizes":[],"default_left":[0,0,0,0,0,0,0],"id":86,"left_children":[1,-1,3,5,-1,-1,-1],"loss_changes":[9.169688E0,0E0,2.4447165E0,1.9801463E-1,0E0,0E0,0E0],"parents":[2147483647,0,0,2,2,3,3],"right_children":[2,-1,4,6,-1,-1,-1],"split_conditions":[7.443825E-1,-8.675156E-2,-2.8681776E-1,-1.8662322E-1,8.218052E-2,3.675901E-3,-4.691275E-2],"split_indices":[2,0,16,8,0,0,0],"split_type":[0,0,0,0,0,0,0],"sum_hessian":[1.6040302E1,6.5411234E0,9.499179E0,2.0541723E0,7.445007E0,1.0364804E0,1.0176919E0],"tree_param":{"num_deleted":"0","num_feature":"44","num_nodes":"7","size_leaf_vector":"1"}},{"base_weights":[6.486657E-3,-8.57487E-2,6.280962E-1,-5.9047576E-2,8.4460035E-2],"categories":[],"categories_nodes":[],"categories_segments":[],"categories_sizes":[],"default_left":[0,0,0,0,0],"id":87,"left_children":[1,-1,3,-1,-1],"loss_changes":[8.99517E0,0E0,3.0670023E0,0E0,0E0],"parents":[2147483647,0,0,2,2],"right_children":[2,-1,4,-1,-1],"split_conditions":[7.443825E-1,-8.57487E-2,5.270214E-1,-5.9047576E-2,8.4460035E-2],"split_indices":[2,0,15,0,0],"split_type":[0,0,0,0,0],"sum_hessian":[1.4746241E1,6.0114613E0,8.734778E0,1.0571871E0,7.677592E0],"tree_param":{"num_deleted":"0","num_feature":"44","num_nodes":"5","size_leaf_vector":"1"}},{"base_weights":[-1.5742231E-2,-6.937791E-1,7.1941096E-1,-8.161881E-2,7.5584794E-3,6.7174244E-3,8.2181804E-2],"categories":[],"categories_nodes":[],"categories_segments":[],"categories_sizes":[],"default_left":[0,0,0,0,0,0,0],"id":88,"left_children":[1,3,5,-1,-1,-1,-1],"loss_changes":[7.77581E0,8.2483006E-1,4.454186E-1,0E0,0E0,0E0,0E0],"parents":[2147483647,0,0,1,1,2,2],"right_children":[2,4,6,-1,-1,-1,-1],"split_conditions":[-2.7512166E-1,-5.787812E-2,-3.5130516E-1,-8.161881E-2,7.5584794E-3,6.7174244E-3,8.2181804E-2],"split_indices":[16,39,41,0,0,0,0],"split_type":[0,0,0,0,0,0,0],"sum_hessian":[1.3598329E1,7.1032405E0,6.495088E0,6.0757093E0,1.027531E0,1.1061167E0,5.388972E0],"tree_param":{"num_deleted":"0","num_feature":"44","num_nodes":"7","size_leaf_vector":"1"}},{"base_weights":[-4.4673137E-2,-6.157274E-1,7.140401E-1,-8.107294E-2,4.1443906E-3,1.4755036E-2,7.932128E-2],"categories":[],"categories_nodes":[],"categories_segments":[],"categories_sizes":[],"default_left":[0,0,0,0,0,0,0],"id":89,"left_children":[1,3,5,-1,-1,-1,-1],"loss_changes":[6.6064596E0,1.1431103E0,1.778698E-1,0E0,0E0,0E0,0E0],"parents":[2147483647,0,0,1,1,2,2],"right_children":[2,4,6,-1,-1,-1,-1],"split_conditions":[-2.4750222E-1,-3.0317578E-1,-2.6245594E-1,-8.107294E-2,4.1443906E-3,1.4755036E-2,7.932128E-2],"split_indices":[40,38,43,0,0,0,0],"split_type":[0,0,0,0,0,0,0],"sum_hessian":[1.3233288E1,7.6579223E0,5.5753655E0,5.725372E0,1.9325504E0,1.0348127E0,4.5405526E0],"tree_param":{"num_deleted":"0","num_feature":"44","num_nodes":"7","size_leaf_vector":"1"}},{"base_weights":[-5.885126E-3,-5.7280374E-1,6.9272864E-1,-7.429617E-2,-1.3771784E-3,7.708156E-3,7.9547435E-2],"categories":[],"categories_nodes":[],"categories_segments":[],"categories_sizes":[],"default_left":[0,0,0,0,0,0,0],"id":90,"left_children":[1,3,5,-1,-1,-1,-1],"loss_changes":[5.593964E0,7.3090434E-1,3.391502E-1,0E0,0E0,0E0,0E0],"parents":[2147483647,0,0,1,1,2,2],"right_children":[2,4,6,-1,-1,-1,-1],"split_conditions":[-3.4564543E-1,-3.0317578E-1,-2.6539797E-1,-7.429617E-2,-1.3771784E-3,7.708156E-3,7.9547435E-2],"split_indices":[41,38,38,0,0,0,0],"split_type":[0,0,0,0,0,0,0],"sum_hessian":[1.2122264E1,6.791285E0,5.3309793E0,4.954286E0,1.8369987E0,1.0127642E0,4.3182154E0],"tree_param":{"num_deleted":"0","num_feature":"44","num_nodes":"7","size_leaf_vector":"1"}},{"base_weights":[-2.2204965E-2,-8.1974745E-2,5.364122E-1,-1.289317E-1,8.242913E-2,-4.7018718E-2,2.5681471E-2],"categories":[],"categories_nodes":[],"categories_segments":[],"categories_sizes":[],"default_left":[0,0,0,0,0,0,0],"id":91,"left_children":[1,-1,3,5,-1,-1,-1],"loss_changes":[6.009479E0,0E0,1.6302652E0,5.5090076E-1,0E0,0E0,0E0],"parents":[2147483647,0,0,2,2,3,3],"right_children":[2,-1,4,6,-1,-1,-1],"split_conditions":[7.443825E-1,-8.1974745E-2,-5.787812E-2,-3.6262462E-1,8.242913E-2,-4.7018718E-2,2.5681471E-2],"split_indices":[2,0,39,41,0,0,0],"split_type":[0,0,0,0,0,0,0],"sum_hessian":[1.1501674E1,4.545115E0,6.956558E0,2.2676702E0,4.688888E0,1.0870742E0,1.180596E0],"tree_param":{"num_deleted":"0","num_feature":"44","num_nodes":"7","size_leaf_vector":"1"}},{"base_weights":[-2.0581193E-2,-8.078076E-2,5.164354E-1,-5.488933E-2,8.064165E-2,1.9781573E-2,-3.226454E-2],"categories":[],"categories_nodes":[],"categories_segments":[],"categories_sizes":[],"default_left":[0,0,0,0,0,0,0],"id":92,"left_children":[1,-1,3,5,-1,-1,-1],"loss_changes":[5.4325604E0,0E0,1.3137529E0,3.0173436E-1,0E0,0E0,0E0],"parents":[2147483647,0,0,2,2,3,3],"right_children":[2,-1,4,6,-1,-1,-1],"split_conditions":[7.443825E-1,-8.078076E-2,-2.4750222E-1,3.287927E-2,8.064165E-2,1.9781573E-2,-3.226454E-2],"split_indices":[2,0,40,9,0,0,0],"split_type":[0,0,0,0,0,0,0],"sum_hessian":[1.0863601E1,4.200999E0,6.6626024E0,2.5160868E0,4.1465154E0,1.4288057E0,1.087281E0],"tree_param":{"num_deleted":"0","num_feature":"44","num_nodes":"7","size_leaf_vector":"1"}},{"base_weights":[-1.1937027E-2,-7.944702E-2,5.218327E-1,-3.153673E-2,7.937982E-2,-3.164982E-2,2.5539069E-2],"categories":[],"categories_nodes":[],"categories_segments":[],"categories_sizes":[],"default_left":[0,0,0,0,0,0,0],"id":93,"left_children":[1,-1,3,5,-1,-1,-1],"loss_changes":[5.016184E0,0E0,1.1015309E0,3.5218918E-1,0E0,0E0,0E0],"parents":[2147483647,0,0,2,2,3,3],"right_children":[2,-1,4,6,-1,-1,-1],"split_conditions":[7.443825E-1,-7.944702E-2,-2.4750222E-1,-8.2131855E-2,7.937982E-2,-3.164982E-2,2.5539069E-2],"split_indices":[2,0,40,17,0,0,0],"split_type":[0,0,0,0,0,0,0],"sum_hessian":[1.0016724E1,3.8637938E0,6.15293E0,2.3188322E0,3.8340974E0,1.1116945E0,1.2071377E0],"tree_param":{"num_deleted":"0","num_feature":"44","num_nodes":"7","size_leaf_vector":"1"}},{"base_weights":[-5.7852864E-2,-6.773272E-2,5.094157E-1,-6.6536204E-3,7.217046E-2],"categories":[],"categories_nodes":[],"categories_segments":[],"categories_sizes":[],"default_left":[0,0,0,0,0],"id":94,"left_children":[1,-1,3,-1,-1],"loss_changes":[4.1585493E0,0E0,8.1042004E-1,0E0,0E0],"parents":[2147483647,0,0,2,2],"right_children":[2,-1,4,-1,-1],"split_conditions":[-3.0317578E-1,-6.773272E-2,-2.5055984E-1,-6.6536204E-3,7.217046E-2],"split_indices":[38,0,16,0,0],"split_type":[0,0,0,0,0],"sum_hessian":[9.852071E0,4.616595E0,5.2354755E0,1.5949264E0,3.6405494E0],"tree_param":{"num_deleted":"0","num_feature":"44","num_nodes":"5","size_leaf_vector":"1"}},{"base_weights":[-4.311748E-2,-7.720574E-2,4.2299336E-1,-2.537012E-2,6.7966145E-1,1.534561E-2,7.6761246E-2],"categories":[],"categories_nodes":[],"categories_segments":[],"categories_sizes":[],"default_left":[0,0,0,0,0,0,0],"id":95,"left_children":[1,-1,3,-1,5,-1,-1],"loss_changes":[3.8388753E0,0E0,1.3798078E0,0E0,1.2803221E-1,0E0,0E0],"parents":[2147483647,0,0,2,2,4,4],"right_children":[2,-1,4,-1,6,-1,-1],"split_conditions":[7.443825E-1,-7.720574E-2,-3.0317578E-1,-2.537012E-2,-8.144198E-2,1.534561E-2,7.6761246E-2],"split_indices":[2,0,38,0,17,0,0],"split_type":[0,0,0,0,0,0,0],"sum_hessian":[9.337384E0,3.385889E0,5.9514956E0,1.6397978E0,4.3116975E0,1.0105329E0,3.3011649E0],"tree_param":{"num_deleted":"0","num_feature":"44","num_nodes":"7","size_leaf_vector":"1"}},{"base_weights":[-2.8859885E-2,-7.588624E-2,4.3533853E-1,-1.6658196E-2,6.329167E-1,1.009271E-2,7.5354256E-2],"categories":[],"categories_nodes":[],"categories_segments":[],"categories_sizes":[],"default_left":[0,0,0,0,0,0,0],"id":96,"left_children":[1,-1,3,-1,5,-1,-1],"loss_changes":[3.6269405E0,0E0,8.88235E-1,0E0,2.5532627E-1,0E0,0E0],"parents":[2147483647,0,0,2,2,4,4],"right_children":[2,-1,4,-1,6,-1,-1],"split_conditions":[7.443825E-1,-7.588624E-2,-3.0317578E-1,-1.6658196E-2,-5.787812E-2,1.009271E-2,7.5354256E-2],"split_indices":[2,0,38,0,39,0,0],"split_type":[0,0,0,0,0,0,0],"sum_hessian":[8.728266E0,3.1460226E0,5.5822434E0,1.4182957E0,4.1639476E0,1.1091257E0,3.054822E0],"tree_param":{"num_deleted":"0","num_feature":"44","num_nodes":"7","size_leaf_vector":"1"}},{"base_weights":[-2.6207896E-2,-5.161886E-1,6.2360114E-1,-6.564581E-1,2.2768043E-3,1.879344E-2,6.9819435E-2,-7.375485E-2,-1.9072775E-2],"categories":[],"categories_nodes":[],"categories_segments":[],"categories_sizes":[],"default_left":[0,0,0,0,0,0,0,0,0],"id":97,"left_children":[1,3,5,7,-1,-1,-1,-1,-1],"loss_changes":[3.2721746E0,4.5567918E-1,1.2953877E-2,3.529811E-2,0E0,0E0,0E0,0E0,0E0],"parents":[2147483647,0,0,1,1,2,2,3,3],"right_children":[2,4,6,8,-1,-1,-1,-1,-1],"split_conditions":[-2.6539797E-1,1.0268102E0,-2.8338853E-1,-3.6262462E-1,2.2768043E-3,1.879344E-2,6.9819435E-2,-7.375485E-2,-1.9072775E-2],"split_indices":[38,37,41,41,0,0,0,0,0],"split_type":[0,0,0,0,0,0,0,0,0],"sum_hessian":[8.266129E0,4.8298607E0,3.436268E0,3.659435E0,1.1704255E0,1.016834E0,2.419434E0,2.619674E0,1.0397612E0],"tree_param":{"num_deleted":"0","num_feature":"44","num_nodes":"9","size_leaf_vector":"1"}},{"base_weights":[3.8651243E-2,-7.336103E-2,5.318134E-1,2.4942781E-3,7.504912E-2],"categories":[],"categories_nodes":[],"categories_segments":[],"categories_sizes":[],"default_left":[0,0,0,0,0],"id":98,"left_children":[1,-1,3,-1,-1],"loss_changes":[3.6472108E0,0E0,6.240386E-1,0E0,0E0],"parents":[2147483647,0,0,2,2],"right_children":[2,-1,4,-1,-1],"split_conditions":[7.443825E-1,-7.336103E-2,-2.9232088E-1,2.4942781E-3,7.504912E-2],"split_indices":[2,0,40,0,0],"split_type":[0,0,0,0,0],"sum_hessian":[7.5520954E0,2.753196E0,4.798899E0,1.7821461E0,3.0167534E0],"tree_param":{"num_deleted":"0","num_feature":"44","num_nodes":"5","size_leaf_vector":"1"}},{"base_weights":[4.419643E-2,-7.194152E-2,5.2858317E-1,-5.6820405E-3,7.4543916E-2],"categories":[],"categories_nodes":[],"categories_segments":[],"categories_sizes":[],"default_left":[0,0,0,0,0],"id":99,"left_children":[1,-1,3,-1,-1],"loss_changes":[3.3725097E0,0E0,7.439083E-1,0E0,0E0],"parents":[2147483647,0,0,2,2],"right_children":[2,-1,4,-1,-1],"split_conditions":[7.443825E-1,-7.194152E-2,-2.8681776E-1,-5.6820405E-3,7.4543916E-2],"split_indices":[2,0,16,0,0],"split_type":[0,0,0,0,0],"sum_hessian":[7.0896835E0,2.5634007E0,4.5262823E0,1.4229646E0,3.103318E0],"tree_param":{"num_deleted":"0","num_feature":"44","num_nodes":"5","size_leaf_vector":"1"}}]},"name":"gbtree"},"learner_model_param":{"base_score":"5.714066E-1","boost_from_average":"1","num_class":"0","num_feature":"44","num_target":"1"},"objective":{"name":"binary:logistic","reg_loss_param":{"scale_pos_weight":"1"}}},"version":[2,1,4]}